<?xml version="1.0"?>
<opencv_storage>
<cascade>
  <stageType>BOOST</stageType>
  <featureType>LBP</featureType>
  <height>24</height>
  <width>24</width>
  <stageParams>
    <boostType>GAB</boostType>
    <minHitRate>9.9500000476837158e-01</minHitRate>
    <maxFalseAlarm>5.0000000000000000e-01</maxFalseAlarm>
    <weightTrimRate>9.4999999999999996e-01</weightTrimRate>
    <maxDepth>1</maxDepth>
    <maxWeakCount>100</maxWeakCount></stageParams>
  <featureParams>
    <maxCatCount>256</maxCatCount>
    <featSize>1</featSize></featureParams>
  <stageNum>6</stageNum>
  <stages>
    <!-- stage 0 -->
    <_>
      <maxWeakCount>2</maxWeakCount>
      <stageThreshold>-5.4271269589662552e-02</stageThreshold>
      <weakClassifiers>
        <_>
          <internalNodes>
            0 -1 6 -234708840 -804257728 208 -783712248 -2147450744
            -2139062272 -2013230966 -1165260278</internalNodes>
          <leafValues>
            -9.8387098312377930e-01 9.6475768089294434e-01</leafValues></_>
        <_>
          <internalNodes>
            0 -1 5 -783027465 1397817427 1124144575 -652394465
            -1867730944 -2113896440 -2009587491 -74727269</internalNodes>
          <leafValues>
            -9.8664391040802002e-01 9.2959970235824585e-01</leafValues></_></weakClassifiers></_>
    <!-- stage 1 -->
    <_>
      <maxWeakCount>2</maxWeakCount>
      <stageThreshold>-5.3920984268188477e-02</stageThreshold>
      <weakClassifiers>
        <_>
          <internalNodes>
            0 -1 7 -17 -1 -1870659808 -28589 -18 -2 -1476153462 -4478333</internalNodes>
          <leafValues>
            -9.2094862461090088e-01 9.3693691492080688e-01</leafValues></_>
        <_>
          <internalNodes>
            0 -1 10 -744506369 -535494653 98647 -1727823869 1359184061
            -2147483648 1090584577 -83232699</internalNodes>
          <leafValues>
            -9.6330410242080688e-01 8.6702764034271240e-01</leafValues></_></weakClassifiers></_>
    <!-- stage 2 -->
    <_>
      <maxWeakCount>2</maxWeakCount>
      <stageThreshold>-1.0152299702167511e-01</stageThreshold>
      <weakClassifiers>
        <_>
          <internalNodes>
            0 -1 3 -782241441 -787414753 20401326 -2128656370
            -2145656545 -2147483613 -1995589377 -69231873</internalNodes>
          <leafValues>
            -9.8064517974853516e-01 8.3711338043212891e-01</leafValues></_>
        <_>
          <internalNodes>
            0 -1 0 -774426113 1162285431 1134871 201931273 -1568493414
            -2004713342 -1467971413 -926168918</internalNodes>
          <leafValues>
            -9.3018132448196411e-01 8.7912213802337646e-01</leafValues></_></weakClassifiers></_>
    <!-- stage 3 -->
    <_>
      <maxWeakCount>2</maxWeakCount>
      <stageThreshold>-7.8140325844287872e-02</stageThreshold>
      <weakClassifiers>
        <_>
          <internalNodes>
            0 -1 1 85922135 1364530261 18067807 -36028065 941687340
            8388608 -1961686533 -610631458</internalNodes>
          <leafValues>
            -9.3047034740447998e-01 8.7852495908737183e-01</leafValues></_>
        <_>
          <internalNodes>
            0 -1 8 391583543 1932743187 16974207 1393819739 -787871373
            -2147352566 1259012363 -107288438</internalNodes>
          <leafValues>
            -9.4032186269760132e-01 8.5233002901077271e-01</leafValues></_></weakClassifiers></_>
    <!-- stage 4 -->
    <_>
      <maxWeakCount>2</maxWeakCount>
      <stageThreshold>-5.5401418358087540e-02</stageThreshold>
      <weakClassifiers>
        <_>
          <internalNodes>
            0 -1 4 -1006431816 272629772 1052 1224736782 458912 0
            -2147155072 -1576533841</internalNodes>
          <leafValues>
            -9.8530954122543335e-01 8.8595563173294067e-01</leafValues></_>
        <_>
          <internalNodes>
            0 -1 2 302199059 -1710227440 16781329 34603009 -2147483648
            -2147483632 -2147479544 -369098742</internalNodes>
          <leafValues>
            -9.3065929412841797e-01 9.2990815639495850e-01</leafValues></_></weakClassifiers></_>
    <!-- stage 5 -->
    <_>
      <maxWeakCount>1</maxWeakCount>
      <stageThreshold>1.</stageThreshold>
      <weakClassifiers>
        <_>
          <internalNodes>
            0 -1 9 1073741824 0 0 0 8193 0 1 -2147352576</internalNodes>
          <leafValues>
            -1. 1.</leafValues></_></weakClassifiers></_></stages>
  <features>
    <_>
      <rect>
        0 8 3 3</rect></_>
    <_>
      <rect>
        0 9 6 5</rect></_>
    <_>
      <rect>
        1 6 4 3</rect></_>
    <_>
      <rect>
        5 9 4 3</rect></_>
    <_>
      <rect>
        8 8 4 2</rect></_>
    <_>
      <rect>
        9 8 5 4</rect></_>
    <_>
      <rect>
        10 10 1 1</rect></_>
    <_>
      <rect>
        10 11 1 1</rect></_>
    <_>
      <rect>
        14 0 3 4</rect></_>
    <_>
      <rect>
        15 10 2 3</rect></_>
    <_>
      <rect>
        17 9 2 5</rect></_></features></cascade>
</opencv_storage>
