<?xml version="1.0"?>
<opencv_storage>
<cascade>
  <stageType>BOOST</stageType>
  <featureType>LBP</featureType>
  <height>24</height>
  <width>24</width>
  <stageParams>
    <boostType>GAB</boostType>
    <minHitRate>9.9500000476837158e-01</minHitRate>
    <maxFalseAlarm>5.0000000000000000e-01</maxFalseAlarm>
    <weightTrimRate>9.4999999999999996e-01</weightTrimRate>
    <maxDepth>1</maxDepth>
    <maxWeakCount>100</maxWeakCount></stageParams>
  <featureParams>
    <maxCatCount>256</maxCatCount>
    <featSize>1</featSize></featureParams>
  <stageNum>6</stageNum>
  <stages>
    <!-- stage 0 -->
    <_>
      <maxWeakCount>2</maxWeakCount>
      <stageThreshold>-6.2016952782869339e-02</stageThreshold>
      <weakClassifiers>
        <_>
          <internalNodes>
            0 -1 9 -751377992 -686817264 3461584 -787283944 754620
            -1870626814 -2147319393 -1146388309</internalNodes>
          <leafValues>
            -9.8775511980056763e-01 9.4347828626632690e-01</leafValues></_>
        <_>
          <internalNodes>
            0 -1 6 -749472865 -749727425 16937983 -753893102 -1039490881
            -887914368 -2013034241 -22878050</internalNodes>
          <leafValues>
            -9.6323853731155396e-01 9.2573815584182739e-01</leafValues></_></weakClassifiers></_>
    <!-- stage 1 -->
    <_>
      <maxWeakCount>2</maxWeakCount>
      <stageThreshold>-7.4066050350666046e-02</stageThreshold>
      <weakClassifiers>
        <_>
          <internalNodes>
            0 -1 5 -249103366 -753795056 16831773 -687734640 -1610370648
            -2147483640 -1987999302 -1148484949</internalNodes>
          <leafValues>
            -9.6390658617019653e-01 8.4342378377914429e-01</leafValues></_>
        <_>
          <internalNodes>
            0 -1 1 -782765581 -1056489001 16879899 65561 -1878281797
            -2105409536 -1954510710 -896821061</internalNodes>
          <leafValues>
            -9.1748982667922974e-01 9.1804713010787964e-01</leafValues></_></weakClassifiers></_>
    <!-- stage 2 -->
    <_>
      <maxWeakCount>2</maxWeakCount>
      <stageThreshold>-8.3848752081394196e-02</stageThreshold>
      <weakClassifiers>
        <_>
          <internalNodes>
            0 -1 7 -705441297 -1041235887 293673198 1225855419
            -1467371265 -1601174861 -1196848913 -105654021</internalNodes>
          <leafValues>
            -9.5625001192092896e-01 8.7021279335021973e-01</leafValues></_>
        <_>
          <internalNodes>
            0 -1 10 -489758582 -799670206 8405196 -237403966 696482
            -1476395008 -1601994614 -355762038</internalNodes>
          <leafValues>
            -8.8194894790649414e-01 8.7240123748779297e-01</leafValues></_></weakClassifiers></_>
    <!-- stage 3 -->
    <_>
      <maxWeakCount>2</maxWeakCount>
      <stageThreshold>-9.7985371947288513e-02</stageThreshold>
      <weakClassifiers>
        <_>
          <internalNodes>
            0 -1 2 -212389033 -524255221 16850975 -2004844533 21013291
            -1065123669 -1283415933 -390027093</internalNodes>
          <leafValues>
            -9.2137098312377930e-01 8.9647579193115234e-01</leafValues></_>
        <_>
          <internalNodes>
            0 -1 3 51581439 315625552 1077941726 -1627127748 177
            -256701773 -2129647221 -394223444</internalNodes>
          <leafValues>
            -9.7854083776473999e-01 8.2338559627532959e-01</leafValues></_></weakClassifiers></_>
    <!-- stage 4 -->
    <_>
      <maxWeakCount>2</maxWeakCount>
      <stageThreshold>-9.8625861108303070e-02</stageThreshold>
      <weakClassifiers>
        <_>
          <internalNodes>
            0 -1 4 -525695727 -219414528 43122707 -642080768 -1465901053
            -2113798136 747503880 -1415053048</internalNodes>
          <leafValues>
            -9.6787148714065552e-01 9.5575219392776489e-01</leafValues></_>
        <_>
          <internalNodes>
            0 -1 0 1364373 1048594 17877277 154 1081392 -2113929216
            -2013230921 -1979604465</internalNodes>
          <leafValues>
            -9.6395683288574219e-01 8.6924564838409424e-01</leafValues></_></weakClassifiers></_>
    <!-- stage 5 -->
    <_>
      <maxWeakCount>1</maxWeakCount>
      <stageThreshold>1.</stageThreshold>
      <weakClassifiers>
        <_>
          <internalNodes>
            0 -1 8 65604 1291845632 24 0 2048 8388608 2088 -2147483648</internalNodes>
          <leafValues>
            -1. 1.</leafValues></_></weakClassifiers></_></stages>
  <features>
    <_>
      <rect>
        0 7 4 3</rect></_>
    <_>
      <rect>
        0 8 3 3</rect></_>
    <_>
      <rect>
        0 9 2 5</rect></_>
    <_>
      <rect>
        2 14 6 3</rect></_>
    <_>
      <rect>
        3 0 5 7</rect></_>
    <_>
      <rect>
        6 6 3 2</rect></_>
    <_>
      <rect>
        6 7 4 5</rect></_>
    <_>
      <rect>
        6 7 6 3</rect></_>
    <_>
      <rect>
        8 1 4 4</rect></_>
    <_>
      <rect>
        13 11 2 2</rect></_>
    <_>
      <rect>
        15 7 1 2</rect></_></features></cascade>
</opencv_storage>
