<?xml version="1.0"?>
<opencv_storage>
<cascade>
  <stageType>BOOST</stageType>
  <featureType>LBP</featureType>
  <height>24</height>
  <width>24</width>
  <stageParams>
    <boostType>GAB</boostType>
    <minHitRate>9.9500000476837158e-01</minHitRate>
    <maxFalseAlarm>5.0000000000000000e-01</maxFalseAlarm>
    <weightTrimRate>9.4999999999999996e-01</weightTrimRate>
    <maxDepth>1</maxDepth>
    <maxWeakCount>100</maxWeakCount></stageParams>
  <featureParams>
    <maxCatCount>256</maxCatCount>
    <featSize>1</featSize></featureParams>
  <stageNum>6</stageNum>
  <stages>
    <!-- stage 0 -->
    <_>
      <maxWeakCount>1</maxWeakCount>
      <stageThreshold>9.7152245044708252e-01</stageThreshold>
      <weakClassifiers>
        <_>
          <internalNodes>
            0 -1 6 -188226866 -749731634 8762 -1857978232 -1610501502
            -2139062272 -2004776294 -74470773</internalNodes>
          <leafValues>
            -1. 9.7152245044708252e-01</leafValues></_></weakClassifiers></_>
    <!-- stage 1 -->
    <_>
      <maxWeakCount>2</maxWeakCount>
      <stageThreshold>-1.4172407984733582e-01</stageThreshold>
      <weakClassifiers>
        <_>
          <internalNodes>
            0 -1 1 -714660933 1073782807 65555 -2147442677 8880643
            -2009038848 -1585340277 -356209781</internalNodes>
          <leafValues>
            -9.7263157367706299e-01 8.6736840009689331e-01</leafValues></_>
        <_>
          <internalNodes>
            0 -1 7 -754266112 -784269311 822169736 -243199911
            -2113896280 -2147450880 -2122084166 -1146384229</internalNodes>
          <leafValues>
            -9.9282717704772949e-01 8.3090752363204956e-01</leafValues></_></weakClassifiers></_>
    <!-- stage 2 -->
    <_>
      <maxWeakCount>2</maxWeakCount>
      <stageThreshold>-9.9157899618148804e-02</stageThreshold>
      <weakClassifiers>
        <_>
          <internalNodes>
            0 -1 9 1936139095 1392771074 33554459 -1740308478 731651
            -2147483648 196723 -74724725</internalNodes>
          <leafValues>
            -9.4099694490432739e-01 8.9967286586761475e-01</leafValues></_>
        <_>
          <internalNodes>
            0 -1 2 -883469449 -134807201 1127438167 1396773019
            -2012676040 -665845576 189859869 1532039769</internalNodes>
          <leafValues>
            -9.6618103981018066e-01 8.4183907508850098e-01</leafValues></_></weakClassifiers></_>
    <!-- stage 3 -->
    <_>
      <maxWeakCount>2</maxWeakCount>
      <stageThreshold>-7.9756736755371094e-02</stageThreshold>
      <weakClassifiers>
        <_>
          <internalNodes>
            0 -1 3 71242013 155254807 329392991 -854777825 16982040
            131087 -1979539319 -1142182674</internalNodes>
          <leafValues>
            -9.7116374969482422e-01 9.0742737054824829e-01</leafValues></_>
        <_>
          <internalNodes>
            0 -1 4 1107787807 -757661675 16842847 -2063532023 131466
            -1878916992 -536831845 -641170808</internalNodes>
          <leafValues>
            -9.7854262590408325e-01 8.9140701293945313e-01</leafValues></_></weakClassifiers></_>
    <!-- stage 4 -->
    <_>
      <maxWeakCount>2</maxWeakCount>
      <stageThreshold>-2.6187168434262276e-02</stageThreshold>
      <weakClassifiers>
        <_>
          <internalNodes>
            0 -1 8 33554453 41943040 4 0 16908291 -2145255424 2
            -2145385975</internalNodes>
          <leafValues>
            -9.8019802570343018e-01 1.</leafValues></_>
        <_>
          <internalNodes>
            0 -1 5 1 0 1 0 32 -2147483645 67108864 -2004877312</internalNodes>
          <leafValues>
            -9.8211729526519775e-01 9.5401084423065186e-01</leafValues></_></weakClassifiers></_>
    <!-- stage 5 -->
    <_>
      <maxWeakCount>1</maxWeakCount>
      <stageThreshold>1.</stageThreshold>
      <weakClassifiers>
        <_>
          <internalNodes>
            0 -1 0 0 0 0 0 0 8388608 0 0</internalNodes>
          <leafValues>
            -1. 1.</leafValues></_></weakClassifiers></_></stages>
  <features>
    <_>
      <rect>
        0 0 1 1</rect></_>
    <_>
      <rect>
        1 9 2 5</rect></_>
    <_>
      <rect>
        5 8 3 3</rect></_>
    <_>
      <rect>
        7 7 4 5</rect></_>
    <_>
      <rect>
        7 12 2 4</rect></_>
    <_>
      <rect>
        9 12 5 4</rect></_>
    <_>
      <rect>
        10 7 1 3</rect></_>
    <_>
      <rect>
        10 11 1 1</rect></_>
    <_>
      <rect>
        12 0 4 7</rect></_>
    <_>
      <rect>
        18 0 2 5</rect></_></features></cascade>
</opencv_storage>
