<?xml version="1.0"?>
<opencv_storage>
<cascade>
  <stageType>BOOST</stageType>
  <featureType>LBP</featureType>
  <height>24</height>
  <width>24</width>
  <stageParams>
    <boostType>GAB</boostType>
    <minHitRate>9.9500000476837158e-01</minHitRate>
    <maxFalseAlarm>5.0000000000000000e-01</maxFalseAlarm>
    <weightTrimRate>9.4999999999999996e-01</weightTrimRate>
    <maxDepth>1</maxDepth>
    <maxWeakCount>100</maxWeakCount></stageParams>
  <featureParams>
    <maxCatCount>256</maxCatCount>
    <featSize>1</featSize></featureParams>
  <stageNum>5</stageNum>
  <stages>
    <!-- stage 0 -->
    <_>
      <maxWeakCount>1</maxWeakCount>
      <stageThreshold>9.8674035072326660e-01</stageThreshold>
      <weakClassifiers>
        <_>
          <internalNodes>
            0 -1 6 -803942381 -763363328 216 -1853816639 33591448
            -2147450752 -1476357990 -1148483445</internalNodes>
          <leafValues>
            -9.9798995256423950e-01 9.8674035072326660e-01</leafValues></_></weakClassifiers></_>
    <!-- stage 1 -->
    <_>
      <maxWeakCount>2</maxWeakCount>
      <stageThreshold>-8.4635905921459198e-02</stageThreshold>
      <weakClassifiers>
        <_>
          <internalNodes>
            0 -1 4 1566569471 -782298665 1279936083 -265268719
            -1207198917 -880082799 -1961129957 -74297165</internalNodes>
          <leafValues>
            -9.8752599954605103e-01 9.0618336200714111e-01</leafValues></_>
        <_>
          <internalNodes>
            0 -1 6 583540940 559743135 -1325281275 1817874458 -527818718
            964689920 329459745 1076900464</internalNodes>
          <leafValues>
            -9.4601905345916748e-01 9.0289008617401123e-01</leafValues></_></weakClassifiers></_>
    <!-- stage 2 -->
    <_>
      <maxWeakCount>2</maxWeakCount>
      <stageThreshold>-9.0703308582305908e-02</stageThreshold>
      <weakClassifiers>
        <_>
          <internalNodes>
            0 -1 1 -1050676297 -2129325709 1114395 136118339 -1593245558
            -1031798781 -1442740081 -892829558</internalNodes>
          <leafValues>
            -9.4285714626312256e-01 8.9565217494964600e-01</leafValues></_>
        <_>
          <internalNodes>
            0 -1 5 1909576157 -262978459 537985047 1880863377
            -1330934901 -1598848888 -1172075878 -222318414</internalNodes>
          <leafValues>
            -9.6127003431320190e-01 8.5215383768081665e-01</leafValues></_></weakClassifiers></_>
    <!-- stage 3 -->
    <_>
      <maxWeakCount>2</maxWeakCount>
      <stageThreshold>2.7614450082182884e-03</stageThreshold>
      <weakClassifiers>
        <_>
          <internalNodes>
            0 -1 3 257 3 16777233 -1073733117 0 -2147450879 1
            -2130673152</internalNodes>
          <leafValues>
            -9.2614185810089111e-01 9.7933411598205566e-01</leafValues></_>
        <_>
          <internalNodes>
            0 -1 2 528401 -2147474937 17891473 2 0 -2147483647 0
            -2147448830</internalNodes>
          <leafValues>
            -9.4510155916213989e-01 9.2890334129333496e-01</leafValues></_></weakClassifiers></_>
    <!-- stage 4 -->
    <_>
      <maxWeakCount>1</maxWeakCount>
      <stageThreshold>1.</stageThreshold>
      <weakClassifiers>
        <_>
          <internalNodes>
            0 -1 0 65537 0 0 0 0 0 0 0</internalNodes>
          <leafValues>
            -1. 1.</leafValues></_></weakClassifiers></_></stages>
  <features>
    <_>
      <rect>
        0 3 4 3</rect></_>
    <_>
      <rect>
        0 8 3 3</rect></_>
    <_>
      <rect>
        0 11 4 4</rect></_>
    <_>
      <rect>
        1 9 4 5</rect></_>
    <_>
      <rect>
        4 9 4 3</rect></_>
    <_>
      <rect>
        8 1 4 6</rect></_>
    <_>
      <rect>
        10 11 1 1</rect></_></features></cascade>
</opencv_storage>
