<?xml version="1.0"?>
<opencv_storage>
<cascade>
  <stageType>BOOST</stageType>
  <featureType>LBP</featureType>
  <height>24</height>
  <width>24</width>
  <stageParams>
    <boostType>GAB</boostType>
    <minHitRate>9.9500000476837158e-01</minHitRate>
    <maxFalseAlarm>5.0000000000000000e-01</maxFalseAlarm>
    <weightTrimRate>9.4999999999999996e-01</weightTrimRate>
    <maxDepth>1</maxDepth>
    <maxWeakCount>100</maxWeakCount></stageParams>
  <featureParams>
    <maxCatCount>256</maxCatCount>
    <featSize>1</featSize></featureParams>
  <stageNum>6</stageNum>
  <stages>
    <!-- stage 0 -->
    <_>
      <maxWeakCount>2</maxWeakCount>
      <stageThreshold>-3.1257461756467819e-02</stageThreshold>
      <weakClassifiers>
        <_>
          <internalNodes>
            0 -1 7 -234839912 -804257712 208 -783712256 -2147450712
            -2139062272 -2013230966 -1148482934</internalNodes>
          <leafValues>
            -9.6626985073089600e-01 9.7982060909271240e-01</leafValues></_>
        <_>
          <internalNodes>
            0 -1 3 1595102103 -749535213 286285175 -753762030
            -2013159221 -1560084206 -1962762853 -1141192552</internalNodes>
          <leafValues>
            -9.8847198486328125e-01 9.3501240015029907e-01</leafValues></_></weakClassifiers></_>
    <!-- stage 1 -->
    <_>
      <maxWeakCount>2</maxWeakCount>
      <stageThreshold>-1.2534856796264648e-01</stageThreshold>
      <weakClassifiers>
        <_>
          <internalNodes>
            0 -1 7 -242167680 -775356416 -1879027687 -74448703
            -2138537846 -1610088320 -209678151 -153441</internalNodes>
          <leafValues>
            -9.7879111766815186e-01 8.5997909307479858e-01</leafValues></_>
        <_>
          <internalNodes>
            0 -1 8 1599549815 -179183093 65563 -784103406 -527767505
            32776 -1073528817 -104355669</internalNodes>
          <leafValues>
            -9.3447047472000122e-01 8.5344249010086060e-01</leafValues></_></weakClassifiers></_>
    <!-- stage 2 -->
    <_>
      <maxWeakCount>2</maxWeakCount>
      <stageThreshold>-4.9099609255790710e-02</stageThreshold>
      <weakClassifiers>
        <_>
          <internalNodes>
            0 -1 2 -1025522953 -653196848 -2146320101 1494286619
            -2147438416 -1837105008 -1961236311 -1147434693</internalNodes>
          <leafValues>
            -8.9566928148269653e-01 9.1628956794738770e-01</leafValues></_>
        <_>
          <internalNodes>
            0 -1 0 1159156087 -1860955817 285302111 -1945630578
            134822067 -1299185503 -2147450821 -125259636</internalNodes>
          <leafValues>
            -9.6538919210433960e-01 8.7219786643981934e-01</leafValues></_></weakClassifiers></_>
    <!-- stage 3 -->
    <_>
      <maxWeakCount>2</maxWeakCount>
      <stageThreshold>-1.8733724951744080e-02</stageThreshold>
      <weakClassifiers>
        <_>
          <internalNodes>
            0 -1 6 -752156816 -13631503 -5242884 -1 -13565968 1869611005
            -3 -1140850689</internalNodes>
          <leafValues>
            -9.0909093618392944e-01 9.2342340946197510e-01</leafValues></_>
        <_>
          <internalNodes>
            0 -1 5 -973130949 -540212067 -1018867329 -1060831207
            -1073428161 -897007584 -929256961 -120808259</internalNodes>
          <leafValues>
            -9.3956792354583740e-01 8.9035719633102417e-01</leafValues></_></weakClassifiers></_>
    <!-- stage 4 -->
    <_>
      <maxWeakCount>2</maxWeakCount>
      <stageThreshold>-5.6807151995599270e-03</stageThreshold>
      <weakClassifiers>
        <_>
          <internalNodes>
            0 -1 9 135451 268763138 16777293 0 33554577 -2113929216
            65537 -2013200384</internalNodes>
          <leafValues>
            -9.5121949911117554e-01 9.1266375780105591e-01</leafValues></_>
        <_>
          <internalNodes>
            0 -1 4 67698831 922812429 19 32 1649163 402655242 151126150
            -1735808984</internalNodes>
          <leafValues>
            -8.8733732700347900e-01 9.4553881883621216e-01</leafValues></_></weakClassifiers></_>
    <!-- stage 5 -->
    <_>
      <maxWeakCount>1</maxWeakCount>
      <stageThreshold>1.</stageThreshold>
      <weakClassifiers>
        <_>
          <internalNodes>
            0 -1 1 2 1048576 65536 65536 0 -2147483648 134217728
            142606336</internalNodes>
          <leafValues>
            -1. 1.</leafValues></_></weakClassifiers></_></stages>
  <features>
    <_>
      <rect>
        0 14 6 3</rect></_>
    <_>
      <rect>
        1 10 2 2</rect></_>
    <_>
      <rect>
        3 6 4 2</rect></_>
    <_>
      <rect>
        3 10 5 4</rect></_>
    <_>
      <rect>
        7 4 4 5</rect></_>
    <_>
      <rect>
        9 0 5 5</rect></_>
    <_>
      <rect>
        9 10 1 1</rect></_>
    <_>
      <rect>
        10 10 1 1</rect></_>
    <_>
      <rect>
        15 0 3 5</rect></_>
    <_>
      <rect>
        15 11 3 4</rect></_></features></cascade>
</opencv_storage>
