<?xml version="1.0"?>
<opencv_storage>
<cascade>
  <stageType>BOOST</stageType>
  <featureType>LBP</featureType>
  <height>24</height>
  <width>24</width>
  <stageParams>
    <boostType>GAB</boostType>
    <minHitRate>9.9500000476837158e-01</minHitRate>
    <maxFalseAlarm>5.0000000000000000e-01</maxFalseAlarm>
    <weightTrimRate>9.4999999999999996e-01</weightTrimRate>
    <maxDepth>1</maxDepth>
    <maxWeakCount>100</maxWeakCount></stageParams>
  <featureParams>
    <maxCatCount>256</maxCatCount>
    <featSize>1</featSize></featureParams>
  <stageNum>5</stageNum>
  <stages>
    <!-- stage 0 -->
    <_>
      <maxWeakCount>1</maxWeakCount>
      <stageThreshold>9.5212185382843018e-01</stageThreshold>
      <weakClassifiers>
        <_>
          <internalNodes>
            0 -1 7 -805138304 -804257792 65536 -778895224 98432
            -1879048064 -1610514296 -1299478390</internalNodes>
          <leafValues>
            -9.9388378858566284e-01 9.5212185382843018e-01</leafValues></_></weakClassifiers></_>
    <!-- stage 1 -->
    <_>
      <maxWeakCount>2</maxWeakCount>
      <stageThreshold>-6.3505657017230988e-02</stageThreshold>
      <weakClassifiers>
        <_>
          <internalNodes>
            0 -1 6 -249562113 -250543917 286329247 286457990 -1043549253
            -2138046432 1091899547 -1325334509</internalNodes>
          <leafValues>
            -9.6292483806610107e-01 8.9881592988967896e-01</leafValues></_>
        <_>
          <internalNodes>
            0 -1 4 -780087108 -246284272 16777657 -1852768165
            -2147436296 -2013265904 -1207387205 -1145853253</internalNodes>
          <leafValues>
            -9.2157393693923950e-01 8.9941918849945068e-01</leafValues></_></weakClassifiers></_>
    <!-- stage 2 -->
    <_>
      <maxWeakCount>2</maxWeakCount>
      <stageThreshold>-9.2443339526653290e-02</stageThreshold>
      <weakClassifiers>
        <_>
          <internalNodes>
            0 -1 3 1090721119 1081081876 16856351 -1727684450 36610239
            -2144206830 -99833346 -75977992</internalNodes>
          <leafValues>
            -9.7611290216445923e-01 8.1613892316818237e-01</leafValues></_>
        <_>
          <internalNodes>
            0 -1 2 348631 1380974679 84662207 -939519664 10621105
            -1330610172 -2004726789 -125829108</internalNodes>
          <leafValues>
            -9.0633594989776611e-01 8.8366955518722534e-01</leafValues></_></weakClassifiers></_>
    <!-- stage 3 -->
    <_>
      <maxWeakCount>2</maxWeakCount>
      <stageThreshold>-4.7481011599302292e-02</stageThreshold>
      <weakClassifiers>
        <_>
          <internalNodes>
            0 -1 5 -2080042989 1048597 93 12 71 -2147483646 -2147481573
            -2013230896</internalNodes>
          <leafValues>
            -9.7674417495727539e-01 8.6373168230056763e-01</leafValues></_>
        <_>
          <internalNodes>
            0 -1 0 4694039 -2147418105 67585 4456456 32776 -2147483648
            -2147450744 -645816182</internalNodes>
          <leafValues>
            -9.0692001581192017e-01 9.2926317453384399e-01</leafValues></_></weakClassifiers></_>
    <!-- stage 4 -->
    <_>
      <maxWeakCount>2</maxWeakCount>
      <stageThreshold>3.1496062874794006e-02</stageThreshold>
      <weakClassifiers>
        <_>
          <internalNodes>
            0 -1 8 1 8388608 0 0 2058 0 32904 -2013233144</internalNodes>
          <leafValues>
            -9.6850395202636719e-01 1.</leafValues></_>
        <_>
          <internalNodes>
            0 -1 1 1343226113 1 16 8192 0 0 -2147483648 -2147352574</internalNodes>
          <leafValues>
            -9.5085054636001587e-01 1.</leafValues></_></weakClassifiers></_></stages>
  <features>
    <_>
      <rect>
        0 0 2 5</rect></_>
    <_>
      <rect>
        0 10 3 2</rect></_>
    <_>
      <rect>
        1 15 5 3</rect></_>
    <_>
      <rect>
        6 12 4 4</rect></_>
    <_>
      <rect>
        8 9 2 1</rect></_>
    <_>
      <rect>
        9 2 5 3</rect></_>
    <_>
      <rect>
        9 9 2 2</rect></_>
    <_>
      <rect>
        9 11 1 1</rect></_>
    <_>
      <rect>
        11 3 3 5</rect></_></features></cascade>
</opencv_storage>
