<?xml version="1.0"?>
<opencv_storage>
<cascade>
  <stageType>BOOST</stageType>
  <featureType>LBP</featureType>
  <height>24</height>
  <width>24</width>
  <stageParams>
    <boostType>GAB</boostType>
    <minHitRate>9.9500000476837158e-01</minHitRate>
    <maxFalseAlarm>5.0000000000000000e-01</maxFalseAlarm>
    <weightTrimRate>9.4999999999999996e-01</weightTrimRate>
    <maxDepth>1</maxDepth>
    <maxWeakCount>100</maxWeakCount></stageParams>
  <featureParams>
    <maxCatCount>256</maxCatCount>
    <featSize>1</featSize></featureParams>
  <stageNum>5</stageNum>
  <stages>
    <!-- stage 0 -->
    <_>
      <maxWeakCount>1</maxWeakCount>
      <stageThreshold>9.8015433549880981e-01</stageThreshold>
      <weakClassifiers>
        <_>
          <internalNodes>
            0 -1 6 -1073561455 -796917760 2097360 -779517888 -2147450752
            -2147450880 -2013101942 -1165262693</internalNodes>
          <leafValues>
            -9.9597179889678955e-01 9.8015433549880981e-01</leafValues></_></weakClassifiers></_>
    <!-- stage 1 -->
    <_>
      <maxWeakCount>2</maxWeakCount>
      <stageThreshold>-7.5857847929000854e-02</stageThreshold>
      <weakClassifiers>
        <_>
          <internalNodes>
            0 -1 4 -787426305 -1860960239 1360003487 285278209
            -2145353285 -1879048192 -1962702405 -1157486413</internalNodes>
          <leafValues>
            -9.5829194784164429e-01 9.6864503622055054e-01</leafValues></_>
        <_>
          <internalNodes>
            0 -1 2 -782797993 -246058410 16974623 -211512814 -2146762609
            -1718910581 -2146885486 -1147630692</internalNodes>
          <leafValues>
            -9.9226129055023193e-01 8.8243412971496582e-01</leafValues></_></weakClassifiers></_>
    <!-- stage 2 -->
    <_>
      <maxWeakCount>2</maxWeakCount>
      <stageThreshold>-1.2827317416667938e-01</stageThreshold>
      <weakClassifiers>
        <_>
          <internalNodes>
            0 -1 5 -800001808 -254787504 268491228 -1786773308 138444972
            -1568669568 -1305306996 -1432190848</internalNodes>
          <leafValues>
            -9.7669494152069092e-01 8.5983264446258545e-01</leafValues></_>
        <_>
          <internalNodes>
            0 -1 6 331878732 5800028 -251539411 577896607 1655320843
            948437120 849946673 1164978784</internalNodes>
          <leafValues>
            -9.6684497594833374e-01 8.4842175245285034e-01</leafValues></_></weakClassifiers></_>
    <!-- stage 3 -->
    <_>
      <maxWeakCount>2</maxWeakCount>
      <stageThreshold>-7.4096736498177052e-03</stageThreshold>
      <weakClassifiers>
        <_>
          <internalNodes>
            0 -1 1 19 3211267 65809 -1878491136 16 -1870659583 11
            -2012741624</internalNodes>
          <leafValues>
            -9.7936016321182251e-01 9.1192269325256348e-01</leafValues></_>
        <_>
          <internalNodes>
            0 -1 3 268636435 -1627389872 150994944 1074790416 815858177
            -1971257344 1048592 -1158676464</internalNodes>
          <leafValues>
            -9.1933232545852661e-01 9.8164469003677368e-01</leafValues></_></weakClassifiers></_>
    <!-- stage 4 -->
    <_>
      <maxWeakCount>1</maxWeakCount>
      <stageThreshold>1.</stageThreshold>
      <weakClassifiers>
        <_>
          <internalNodes>
            0 -1 0 1 2097152 0 0 0 0 0 -2013265920</internalNodes>
          <leafValues>
            -1. 1.</leafValues></_></weakClassifiers></_></stages>
  <features>
    <_>
      <rect>
        0 0 4 8</rect></_>
    <_>
      <rect>
        2 14 5 3</rect></_>
    <_>
      <rect>
        5 12 3 4</rect></_>
    <_>
      <rect>
        7 9 3 2</rect></_>
    <_>
      <rect>
        8 10 3 1</rect></_>
    <_>
      <rect>
        10 9 2 1</rect></_>
    <_>
      <rect>
        11 11 1 1</rect></_></features></cascade>
</opencv_storage>
