<?xml version="1.0"?>
<opencv_storage>
<cascade>
  <stageType>BOOST</stageType>
  <featureType>LBP</featureType>
  <height>24</height>
  <width>24</width>
  <stageParams>
    <boostType>GAB</boostType>
    <minHitRate>9.9500000476837158e-01</minHitRate>
    <maxFalseAlarm>5.0000000000000000e-01</maxFalseAlarm>
    <weightTrimRate>9.4999999999999996e-01</weightTrimRate>
    <maxDepth>1</maxDepth>
    <maxWeakCount>100</maxWeakCount></stageParams>
  <featureParams>
    <maxCatCount>256</maxCatCount>
    <featSize>1</featSize></featureParams>
  <stageNum>6</stageNum>
  <stages>
    <!-- stage 0 -->
    <_>
      <maxWeakCount>1</maxWeakCount>
      <stageThreshold>9.6714127063751221e-01</stageThreshold>
      <weakClassifiers>
        <_>
          <internalNodes>
            0 -1 7 -204545958 289603651 4224 -775749493 -2147450752
            -2130673664 -1325367160 -1165784949</internalNodes>
          <leafValues>
            -9.9594730138778687e-01 9.6714127063751221e-01</leafValues></_></weakClassifiers></_>
    <!-- stage 1 -->
    <_>
      <maxWeakCount>2</maxWeakCount>
      <stageThreshold>-1.5838521718978882e-01</stageThreshold>
      <weakClassifiers>
        <_>
          <internalNodes>
            0 -1 9 1599552311 -1017839613 65555 -805109758 -2134769601
            134250504 -1073086405 -70786933</internalNodes>
          <leafValues>
            -9.6238243579864502e-01 8.7062567472457886e-01</leafValues></_>
        <_>
          <internalNodes>
            0 -1 0 -740880225 -229174505 285298960 -665563116
            -2121596889 -2122153848 -1442676593 -105332082</internalNodes>
          <leafValues>
            -9.7083705663681030e-01 8.0399721860885620e-01</leafValues></_></weakClassifiers></_>
    <!-- stage 2 -->
    <_>
      <maxWeakCount>2</maxWeakCount>
      <stageThreshold>-7.2290383279323578e-02</stageThreshold>
      <weakClassifiers>
        <_>
          <internalNodes>
            0 -1 8 454245175 290537476 -1996422579 469835803 -2113910229
            -2013233152 -1072529141 -903897073</internalNodes>
          <leafValues>
            -9.2456674575805664e-01 8.7812840938568115e-01</leafValues></_>
        <_>
          <internalNodes>
            0 -1 3 -746849313 -162185191 824800863 -707502051
            -1198740916 -1330624359 -896749348 -102762257</internalNodes>
          <leafValues>
            -9.2247778177261353e-01 8.5227638483047485e-01</leafValues></_></weakClassifiers></_>
    <!-- stage 3 -->
    <_>
      <maxWeakCount>2</maxWeakCount>
      <stageThreshold>-3.5751421004533768e-02</stageThreshold>
      <weakClassifiers>
        <_>
          <internalNodes>
            0 -1 4 354369395 923865345 335626583 1594983180 -1970296397
            -201291648 -1971222341 -108342629</internalNodes>
          <leafValues>
            -8.7028074264526367e-01 9.2156863212585449e-01</leafValues></_>
        <_>
          <internalNodes>
            0 -1 6 67871 196639 16849247 -1056878561 -1573801288
            -2120089445 -2128496180 -649035555</internalNodes>
          <leafValues>
            -9.4291317462921143e-01 8.3452934026718140e-01</leafValues></_></weakClassifiers></_>
    <!-- stage 4 -->
    <_>
      <maxWeakCount>2</maxWeakCount>
      <stageThreshold>1.8757442012429237e-02</stageThreshold>
      <weakClassifiers>
        <_>
          <internalNodes>
            0 -1 2 1347620885 1090846721 285278471 -1054605312 4260097
            16777216 50339842 -117440512</internalNodes>
          <leafValues>
            -9.0769231319427490e-01 9.8139536380767822e-01</leafValues></_>
        <_>
          <internalNodes>
            0 -1 1 -805265024 1359085570 84018448 285216770 33579057 8
            4106 -1870427902</internalNodes>
          <leafValues>
            -9.2591422796249390e-01 9.2644977569580078e-01</leafValues></_></weakClassifiers></_>
    <!-- stage 5 -->
    <_>
      <maxWeakCount>1</maxWeakCount>
      <stageThreshold>1.</stageThreshold>
      <weakClassifiers>
        <_>
          <internalNodes>
            0 -1 5 0 0 16 16842752 160 0 0 0</internalNodes>
          <leafValues>
            -1. 1.</leafValues></_></weakClassifiers></_></stages>
  <features>
    <_>
      <rect>
        1 11 3 4</rect></_>
    <_>
      <rect>
        4 7 2 2</rect></_>
    <_>
      <rect>
        4 8 3 4</rect></_>
    <_>
      <rect>
        6 7 4 3</rect></_>
    <_>
      <rect>
        7 0 4 3</rect></_>
    <_>
      <rect>
        7 5 2 1</rect></_>
    <_>
      <rect>
        8 12 4 4</rect></_>
    <_>
      <rect>
        9 11 1 2</rect></_>
    <_>
      <rect>
        15 0 3 4</rect></_>
    <_>
      <rect>
        15 0 3 5</rect></_></features></cascade>
</opencv_storage>
