<?xml version="1.0"?>
<opencv_storage>
<cascade>
  <stageType>BOOST</stageType>
  <featureType>LBP</featureType>
  <height>24</height>
  <width>24</width>
  <stageParams>
    <boostType>GAB</boostType>
    <minHitRate>9.9500000476837158e-01</minHitRate>
    <maxFalseAlarm>5.0000000000000000e-01</maxFalseAlarm>
    <weightTrimRate>9.4999999999999996e-01</weightTrimRate>
    <maxDepth>1</maxDepth>
    <maxWeakCount>100</maxWeakCount></stageParams>
  <featureParams>
    <maxCatCount>256</maxCatCount>
    <featSize>1</featSize></featureParams>
  <stageNum>7</stageNum>
  <stages>
    <!-- stage 0 -->
    <_>
      <maxWeakCount>2</maxWeakCount>
      <stageThreshold>-7.0256926119327545e-02</stageThreshold>
      <weakClassifiers>
        <_>
          <internalNodes>
            0 -1 5 -753667299 -783187657 17914335 -783056853 -2096389712
            -2096988150 -939286340 -6831397</internalNodes>
          <leafValues>
            -9.8370671272277832e-01 9.4335514307022095e-01</leafValues></_>
        <_>
          <internalNodes>
            0 -1 6 -749210633 -780730095 -1862063841 -615263845
            -393499719 -1449000798 -520050531 -640907060</internalNodes>
          <leafValues>
            -9.6133077144622803e-01 9.1344982385635376e-01</leafValues></_></weakClassifiers></_>
    <!-- stage 1 -->
    <_>
      <maxWeakCount>2</maxWeakCount>
      <stageThreshold>1.3393744826316833e-02</stageThreshold>
      <weakClassifiers>
        <_>
          <internalNodes>
            0 -1 2 -741084169 -638103211 1090572789 -652922787
            -132534091 -1198915583 -1442207565 -356913016</internalNodes>
          <leafValues>
            -8.9628177881240845e-01 9.2938494682312012e-01</leafValues></_>
        <_>
          <internalNodes>
            0 -1 9 1365193599 1364525079 1048605 1358954503 -1073209293
            -2147483512 1073938459 -375725365</internalNodes>
          <leafValues>
            -8.9842247962951660e-01 9.0967553853988647e-01</leafValues></_></weakClassifiers></_>
    <!-- stage 2 -->
    <_>
      <maxWeakCount>2</maxWeakCount>
      <stageThreshold>-7.5800359249114990e-02</stageThreshold>
      <weakClassifiers>
        <_>
          <internalNodes>
            0 -1 4 -781752321 -201620777 109273599 -610860865 -117392060
            -38264815 -1375553201 -3440509</internalNodes>
          <leafValues>
            -9.2763817310333252e-01 9.0939223766326904e-01</leafValues></_>
        <_>
          <internalNodes>
            0 -1 8 1130304375 -548012028 16802101 -2092367399 674771263
            -2139095040 -2130704290 -111158824</internalNodes>
          <leafValues>
            -9.3045842647552490e-01 8.5183781385421753e-01</leafValues></_></weakClassifiers></_>
    <!-- stage 3 -->
    <_>
      <maxWeakCount>2</maxWeakCount>
      <stageThreshold>-1.1455287039279938e-01</stageThreshold>
      <weakClassifiers>
        <_>
          <internalNodes>
            0 -1 1 -570466505 -539630633 -619456649 -216540425
            -1157746571 -349691855 -533599983 -606610693</internalNodes>
          <leafValues>
            -9.7046411037445068e-01 8.6134451627731323e-01</leafValues></_>
        <_>
          <internalNodes>
            0 -1 11 -750275649 -780730351 1116447 -805236720 -804546499
            -2147450880 -520023983 -1450053120</internalNodes>
          <leafValues>
            -9.0245401859283447e-01 8.5591125488281250e-01</leafValues></_></weakClassifiers></_>
    <!-- stage 4 -->
    <_>
      <maxWeakCount>2</maxWeakCount>
      <stageThreshold>-1.3243120908737183e-01</stageThreshold>
      <weakClassifiers>
        <_>
          <internalNodes>
            0 -1 7 32836405 1908605734 1225798451 1212719360 25535233
            -1602093055 -892435583 -924147574</internalNodes>
          <leafValues>
            -9.8699891567230225e-01 8.3009213209152222e-01</leafValues></_>
        <_>
          <internalNodes>
            0 -1 10 1930756375 57737233 285278229 -1606287231 1343271227
            -2146828288 -804216829 -74218974</internalNodes>
          <leafValues>
            -9.1994678974151611e-01 8.5456770658493042e-01</leafValues></_></weakClassifiers></_>
    <!-- stage 5 -->
    <_>
      <maxWeakCount>1</maxWeakCount>
      <stageThreshold>9.1267305612564087e-01</stageThreshold>
      <weakClassifiers>
        <_>
          <internalNodes>
            0 -1 3 -762642253 1074921474 17 8388608 268599298 8388736
            33556482 134250625</internalNodes>
          <leafValues>
            -9.9583768844604492e-01 9.1267305612564087e-01</leafValues></_></weakClassifiers></_>
    <!-- stage 6 -->
    <_>
      <maxWeakCount>1</maxWeakCount>
      <stageThreshold>1.</stageThreshold>
      <weakClassifiers>
        <_>
          <internalNodes>
            0 -1 0 1 0 0 0 0 0 128 0</internalNodes>
          <leafValues>
            -1. 1.</leafValues></_></weakClassifiers></_></stages>
  <features>
    <_>
      <rect>
        0 0 2 1</rect></_>
    <_>
      <rect>
        5 4 4 4</rect></_>
    <_>
      <rect>
        5 5 5 3</rect></_>
    <_>
      <rect>
        5 8 4 2</rect></_>
    <_>
      <rect>
        5 10 5 3</rect></_>
    <_>
      <rect>
        6 9 4 4</rect></_>
    <_>
      <rect>
        7 9 5 5</rect></_>
    <_>
      <rect>
        8 0 4 8</rect></_>
    <_>
      <rect>
        9 0 5 5</rect></_>
    <_>
      <rect>
        14 0 3 4</rect></_>
    <_>
      <rect>
        15 0 3 4</rect></_>
    <_>
      <rect>
        15 12 3 4</rect></_></features></cascade>
</opencv_storage>
