<?xml version="1.0"?>
<opencv_storage>
<cascade>
  <stageType>BOOST</stageType>
  <featureType>LBP</featureType>
  <height>24</height>
  <width>24</width>
  <stageParams>
    <boostType>GAB</boostType>
    <minHitRate>9.9500000476837158e-01</minHitRate>
    <maxFalseAlarm>5.0000000000000000e-01</maxFalseAlarm>
    <weightTrimRate>9.4999999999999996e-01</weightTrimRate>
    <maxDepth>1</maxDepth>
    <maxWeakCount>100</maxWeakCount></stageParams>
  <featureParams>
    <maxCatCount>256</maxCatCount>
    <featSize>1</featSize></featureParams>
  <stageNum>4</stageNum>
  <stages>
    <!-- stage 0 -->
    <_>
      <maxWeakCount>1</maxWeakCount>
      <stageThreshold>9.6502733230590820e-01</stageThreshold>
      <weakClassifiers>
        <_>
          <internalNodes>
            0 -1 2 -234708983 -804257792 133 -787906550 -2147450742
            -2147450880 -2013230966 -1148482934</internalNodes>
          <leafValues>
            -9.9796956777572632e-01 9.6502733230590820e-01</leafValues></_></weakClassifiers></_>
    <!-- stage 1 -->
    <_>
      <maxWeakCount>2</maxWeakCount>
      <stageThreshold>-3.5918797366321087e-03</stageThreshold>
      <weakClassifiers>
        <_>
          <internalNodes>
            0 -1 1 558044125 1929576471 285327645 -721223659 -2139062024
            -1845493744 -1995596353 -1148092261</internalNodes>
          <leafValues>
            -9.5190382003784180e-01 9.4235032796859741e-01</leafValues></_>
        <_>
          <internalNodes>
            0 -1 3 1364720639 -720306147 25362773 -654245607 -2130578945
            -2146435040 21072059 -577548101</internalNodes>
          <leafValues>
            -9.2931997776031494e-01 9.4831192493438721e-01</leafValues></_></weakClassifiers></_>
    <!-- stage 2 -->
    <_>
      <maxWeakCount>2</maxWeakCount>
      <stageThreshold>2.3963550105690956e-02</stageThreshold>
      <weakClassifiers>
        <_>
          <internalNodes>
            0 -1 5 1095958855 1091633413 7190 1107296775 17530923 32896
            -2146140006 -1463565814</internalNodes>
          <leafValues>
            -9.3756294250488281e-01 9.1620725393295288e-01</leafValues></_>
        <_>
          <internalNodes>
            0 -1 4 -805257215 -1072693224 -1342172967 -662691621
            1073782793 0 -241127014 -778331941</internalNodes>
          <leafValues>
            -8.8803011178970337e-01 9.6152651309967041e-01</leafValues></_></weakClassifiers></_>
    <!-- stage 3 -->
    <_>
      <maxWeakCount>1</maxWeakCount>
      <stageThreshold>1.</stageThreshold>
      <weakClassifiers>
        <_>
          <internalNodes>
            0 -1 0 131074 352321536 0 -2147483648 524297 2 16842752
            -1241513982</internalNodes>
          <leafValues>
            -1. 1.</leafValues></_></weakClassifiers></_></stages>
  <features>
    <_>
      <rect>
        3 7 3 5</rect></_>
    <_>
      <rect>
        9 11 3 2</rect></_>
    <_>
      <rect>
        10 10 1 1</rect></_>
    <_>
      <rect>
        10 10 2 2</rect></_>
    <_>
      <rect>
        10 11 1 1</rect></_>
    <_>
      <rect>
        17 1 2 4</rect></_></features></cascade>
</opencv_storage>
