<?xml version="1.0"?>
<opencv_storage>
<cascade>
  <stageType>BOOST</stageType>
  <featureType>LBP</featureType>
  <height>24</height>
  <width>24</width>
  <stageParams>
    <boostType>GAB</boostType>
    <minHitRate>9.9500000476837158e-01</minHitRate>
    <maxFalseAlarm>5.0000000000000000e-01</maxFalseAlarm>
    <weightTrimRate>9.4999999999999996e-01</weightTrimRate>
    <maxDepth>1</maxDepth>
    <maxWeakCount>100</maxWeakCount></stageParams>
  <featureParams>
    <maxCatCount>256</maxCatCount>
    <featSize>1</featSize></featureParams>
  <stageNum>6</stageNum>
  <stages>
    <!-- stage 0 -->
    <_>
      <maxWeakCount>2</maxWeakCount>
      <stageThreshold>-7.4492059648036957e-02</stageThreshold>
      <weakClassifiers>
        <_>
          <internalNodes>
            0 -1 3 -784616481 1364263323 285431263 -1858011133
            -1610579781 -1459584896 -1945072993 -72251237</internalNodes>
          <leafValues>
            -9.8393571376800537e-01 9.7345131635665894e-01</leafValues></_>
        <_>
          <internalNodes>
            0 -1 2 -787443518 -787349499 268439872 -1719070695
            -2146918264 -1476394992 -1862227574 -1146388342</internalNodes>
          <leafValues>
            -9.8439282178878784e-01 9.0944367647171021e-01</leafValues></_></weakClassifiers></_>
    <!-- stage 1 -->
    <_>
      <maxWeakCount>2</maxWeakCount>
      <stageThreshold>-5.9331197291612625e-02</stageThreshold>
      <weakClassifiers>
        <_>
          <internalNodes>
            0 -1 9 -782967042 -753745838 1497519261 -788398072
            -1073706760 -1207959552 9472184 -1147500392</internalNodes>
          <leafValues>
            -9.5440411567687988e-01 8.7807488441467285e-01</leafValues></_>
        <_>
          <internalNodes>
            0 -1 3 617502015 -1624108955 -904887563 -811656291
            -1056853761 -1332707190 -616449653 -1433413217</internalNodes>
          <leafValues>
            -9.0481859445571899e-01 8.9507293701171875e-01</leafValues></_></weakClassifiers></_>
    <!-- stage 2 -->
    <_>
      <maxWeakCount>2</maxWeakCount>
      <stageThreshold>-1.2417317181825638e-01</stageThreshold>
      <weakClassifiers>
        <_>
          <internalNodes>
            0 -1 7 -1209026569 -487094849 17498335 -752905954 -269505878
            -1870626656 -83432470 -168507238</internalNodes>
          <leafValues>
            -9.5111584663391113e-01 8.2898855209350586e-01</leafValues></_>
        <_>
          <internalNodes>
            0 -1 0 -748744433 -1017872097 196923 -1568632701 -1459494903
            -1870626808 -1827954509 -91190502</internalNodes>
          <leafValues>
            -9.1202449798583984e-01 8.2694268226623535e-01</leafValues></_></weakClassifiers></_>
    <!-- stage 3 -->
    <_>
      <maxWeakCount>2</maxWeakCount>
      <stageThreshold>-7.1372903883457184e-02</stageThreshold>
      <weakClassifiers>
        <_>
          <internalNodes>
            0 -1 1 -1744830465 -719375969 -989543937 1562312719
            -149320193 -662077288 -2010191798 -276109189</internalNodes>
          <leafValues>
            -8.8910889625549316e-01 8.9662921428680420e-01</leafValues></_>
        <_>
          <internalNodes>
            0 -1 5 1440077309 -134761665 1343160959 -811621857 128705519
            -503185398 1259072187 -605312374</internalNodes>
          <leafValues>
            -9.2471092939376831e-01 8.1773602962493896e-01</leafValues></_></weakClassifiers></_>
    <!-- stage 4 -->
    <_>
      <maxWeakCount>2</maxWeakCount>
      <stageThreshold>4.6237174421548843e-02</stageThreshold>
      <weakClassifiers>
        <_>
          <internalNodes>
            0 -1 4 136249863 1086456062 16842812 852108 136314942
            -1608515496 -1979055736 -1961062391</internalNodes>
          <leafValues>
            -8.7683284282684326e-01 9.0877991914749146e-01</leafValues></_>
        <_>
          <internalNodes>
            0 -1 6 -939272813 1392640051 144707664 33554450 -1714487137
            -2147483636 -1975515128 -1733951461</internalNodes>
          <leafValues>
            -8.4121114015579224e-01 9.2307001352310181e-01</leafValues></_></weakClassifiers></_>
    <!-- stage 5 -->
    <_>
      <maxWeakCount>2</maxWeakCount>
      <stageThreshold>5.8252427726984024e-02</stageThreshold>
      <weakClassifiers>
        <_>
          <internalNodes>
            0 -1 10 1073751064 33554432 1 -2147483648 0 0 160
            -2146959360</internalNodes>
          <leafValues>
            -9.4174754619598389e-01 1.</leafValues></_>
        <_>
          <internalNodes>
            0 -1 8 -2147442430 131072 16777217 0 32770 -2147483648
            185204736 -2147483622</internalNodes>
          <leafValues>
            -9.1860121488571167e-01 1.</leafValues></_></weakClassifiers></_></stages>
  <features>
    <_>
      <rect>
        0 12 3 4</rect></_>
    <_>
      <rect>
        2 8 6 3</rect></_>
    <_>
      <rect>
        6 10 2 1</rect></_>
    <_>
      <rect>
        6 10 4 3</rect></_>
    <_>
      <rect>
        6 11 4 3</rect></_>
    <_>
      <rect>
        8 0 3 7</rect></_>
    <_>
      <rect>
        8 5 4 4</rect></_>
    <_>
      <rect>
        8 8 3 4</rect></_>
    <_>
      <rect>
        10 6 3 3</rect></_>
    <_>
      <rect>
        10 7 3 2</rect></_>
    <_>
      <rect>
        15 2 3 4</rect></_></features></cascade>
</opencv_storage>
