<?xml version="1.0"?>
<opencv_storage>
<cascade>
  <stageType>BOOST</stageType>
  <featureType>LBP</featureType>
  <height>24</height>
  <width>24</width>
  <stageParams>
    <boostType>GAB</boostType>
    <minHitRate>9.9500000476837158e-01</minHitRate>
    <maxFalseAlarm>5.0000000000000000e-01</maxFalseAlarm>
    <weightTrimRate>9.4999999999999996e-01</weightTrimRate>
    <maxDepth>1</maxDepth>
    <maxWeakCount>100</maxWeakCount></stageParams>
  <featureParams>
    <maxCatCount>256</maxCatCount>
    <featSize>1</featSize></featureParams>
  <stageNum>4</stageNum>
  <stages>
    <!-- stage 0 -->
    <_>
      <maxWeakCount>1</maxWeakCount>
      <stageThreshold>9.7585070133209229e-01</stageThreshold>
      <weakClassifiers>
        <_>
          <internalNodes>
            0 -1 3 -803946480 -763363328 217 -1853816639 -2097114984
            -2147450752 -1476357990 -1148483445</internalNodes>
          <leafValues>
            -1. 9.7585070133209229e-01</leafValues></_></weakClassifiers></_>
    <!-- stage 1 -->
    <_>
      <maxWeakCount>2</maxWeakCount>
      <stageThreshold>-4.5161388814449310e-02</stageThreshold>
      <weakClassifiers>
        <_>
          <internalNodes>
            0 -1 4 -326193237 -4216150 536871080 -217907006 -1040023414
            -2138570752 -1199394630 -208953206</internalNodes>
          <leafValues>
            -9.5845699310302734e-01 9.7750282287597656e-01</leafValues></_>
        <_>
          <internalNodes>
            0 -1 1 -713613377 -606105097 50545631 -1691286253
            -2085977685 -1046478787 -821901221 -645869481</internalNodes>
          <leafValues>
            -9.7327941656112671e-01 9.1329556703567505e-01</leafValues></_></weakClassifiers></_>
    <!-- stage 2 -->
    <_>
      <maxWeakCount>1</maxWeakCount>
      <stageThreshold>9.0031814575195313e-01</stageThreshold>
      <weakClassifiers>
        <_>
          <internalNodes>
            0 -1 0 34209811 290455767 1048751 -754908536 1075851265
            -804781943 139504282 -78634280</internalNodes>
          <leafValues>
            -9.9164056777954102e-01 9.0031814575195313e-01</leafValues></_></weakClassifiers></_>
    <!-- stage 3 -->
    <_>
      <maxWeakCount>1</maxWeakCount>
      <stageThreshold>1.</stageThreshold>
      <weakClassifiers>
        <_>
          <internalNodes>
            0 -1 2 1355026500 8650752 16777492 16777216 0 0 135004160
            134217728</internalNodes>
          <leafValues>
            -9.9800199270248413e-01 1.</leafValues></_></weakClassifiers></_></stages>
  <features>
    <_>
      <rect>
        5 12 4 4</rect></_>
    <_>
      <rect>
        6 8 3 4</rect></_>
    <_>
      <rect>
        7 11 4 2</rect></_>
    <_>
      <rect>
        10 11 1 1</rect></_>
    <_>
      <rect>
        12 11 1 1</rect></_></features></cascade>
</opencv_storage>
