<?xml version="1.0"?>
<opencv_storage>
<cascade>
  <stageType>BOOST</stageType>
  <featureType>LBP</featureType>
  <height>24</height>
  <width>24</width>
  <stageParams>
    <boostType>GAB</boostType>
    <minHitRate>9.9500000476837158e-01</minHitRate>
    <maxFalseAlarm>5.0000000000000000e-01</maxFalseAlarm>
    <weightTrimRate>9.4999999999999996e-01</weightTrimRate>
    <maxDepth>1</maxDepth>
    <maxWeakCount>100</maxWeakCount></stageParams>
  <featureParams>
    <maxCatCount>256</maxCatCount>
    <featSize>1</featSize></featureParams>
  <stageNum>6</stageNum>
  <stages>
    <!-- stage 0 -->
    <_>
      <maxWeakCount>1</maxWeakCount>
      <stageThreshold>9.5647442340850830e-01</stageThreshold>
      <weakClassifiers>
        <_>
          <internalNodes>
            0 -1 6 -758660600 -742260522 216 1434648586 176802
            -1602191232 -2004703062 -108296053</internalNodes>
          <leafValues>
            -9.9796128273010254e-01 9.5647442340850830e-01</leafValues></_></weakClassifiers></_>
    <!-- stage 1 -->
    <_>
      <maxWeakCount>2</maxWeakCount>
      <stageThreshold>-4.8086807131767273e-02</stageThreshold>
      <weakClassifiers>
        <_>
          <internalNodes>
            0 -1 1 -750316225 1918010391 -1879033323 -490688433
            -2129944309 -1996390400 -1736081269 -69272929</internalNodes>
          <leafValues>
            -9.4099694490432739e-01 8.9967286586761475e-01</leafValues></_>
        <_>
          <internalNodes>
            0 -1 7 -249941815 -237961213 -1325281016 -242151333
            -1593802614 -2147450752 -1417432950 -1145455941</internalNodes>
          <leafValues>
            -9.4685512781143188e-01 8.9291012287139893e-01</leafValues></_></weakClassifiers></_>
    <!-- stage 2 -->
    <_>
      <maxWeakCount>2</maxWeakCount>
      <stageThreshold>-1.0969471186399460e-01</stageThreshold>
      <weakClassifiers>
        <_>
          <internalNodes>
            0 -1 8 1396650871 -246315005 79 -1073618942 1912752491
            -2147450880 1347635242 -91498305</internalNodes>
          <leafValues>
            -9.6808511018753052e-01 8.4375000000000000e-01</leafValues></_>
        <_>
          <internalNodes>
            0 -1 9 1632105471 1363230739 196639 -586088445 -1308520419
            -2147483648 -2105472959 -134109164</internalNodes>
          <leafValues>
            -9.1006219387054443e-01 8.5839039087295532e-01</leafValues></_></weakClassifiers></_>
    <!-- stage 3 -->
    <_>
      <maxWeakCount>2</maxWeakCount>
      <stageThreshold>-5.8741640299558640e-02</stageThreshold>
      <weakClassifiers>
        <_>
          <internalNodes>
            0 -1 2 1439160151 -682273663 285565215 151572608 538018049
            -1341127662 -2096846816 -1191128448</internalNodes>
          <leafValues>
            -9.7322350740432739e-01 9.0958017110824585e-01</leafValues></_>
        <_>
          <internalNodes>
            0 -1 4 823128595 -1287782371 1090638171 -720291825
            -2146848632 269484040 32907 -2013069125</internalNodes>
          <leafValues>
            -9.5249795913696289e-01 9.1448181867599487e-01</leafValues></_></weakClassifiers></_>
    <!-- stage 4 -->
    <_>
      <maxWeakCount>2</maxWeakCount>
      <stageThreshold>1.8997784703969955e-02</stageThreshold>
      <weakClassifiers>
        <_>
          <internalNodes>
            0 -1 5 1 0 65536 -2147418112 2 0 131276 -2013233024</internalNodes>
          <leafValues>
            -9.1754555702209473e-01 1.</leafValues></_>
        <_>
          <internalNodes>
            0 -1 3 1351614848 268435456 16 8388608 138 0 -2130698192
            134217728</internalNodes>
          <leafValues>
            -9.5744806528091431e-01 9.3654334545135498e-01</leafValues></_></weakClassifiers></_>
    <!-- stage 5 -->
    <_>
      <maxWeakCount>1</maxWeakCount>
      <stageThreshold>1.</stageThreshold>
      <weakClassifiers>
        <_>
          <internalNodes>
            0 -1 0 0 65536 0 0 0 0 0 0</internalNodes>
          <leafValues>
            -1. 1.</leafValues></_></weakClassifiers></_></stages>
  <features>
    <_>
      <rect>
        0 0 4 2</rect></_>
    <_>
      <rect>
        0 9 3 5</rect></_>
    <_>
      <rect>
        7 4 4 4</rect></_>
    <_>
      <rect>
        7 9 2 1</rect></_>
    <_>
      <rect>
        8 9 3 2</rect></_>
    <_>
      <rect>
        8 12 3 4</rect></_>
    <_>
      <rect>
        10 9 1 2</rect></_>
    <_>
      <rect>
        10 11 1 1</rect></_>
    <_>
      <rect>
        15 0 3 5</rect></_>
    <_>
      <rect>
        15 12 3 4</rect></_></features></cascade>
</opencv_storage>
