<?xml version="1.0"?>
<opencv_storage>
<cascade>
  <stageType>BOOST</stageType>
  <featureType>LBP</featureType>
  <height>24</height>
  <width>24</width>
  <stageParams>
    <boostType>GAB</boostType>
    <minHitRate>9.9500000476837158e-01</minHitRate>
    <maxFalseAlarm>5.0000000000000000e-01</maxFalseAlarm>
    <weightTrimRate>9.4999999999999996e-01</weightTrimRate>
    <maxDepth>1</maxDepth>
    <maxWeakCount>100</maxWeakCount></stageParams>
  <featureParams>
    <maxCatCount>256</maxCatCount>
    <featSize>1</featSize></featureParams>
  <stageNum>6</stageNum>
  <stages>
    <!-- stage 0 -->
    <_>
      <maxWeakCount>1</maxWeakCount>
      <stageThreshold>9.4378376007080078e-01</stageThreshold>
      <weakClassifiers>
        <_>
          <internalNodes>
            0 -1 5 -753438209 -640216809 87142783 -250380133 -1978355304
            -1174404464 -922580837 -73627123</internalNodes>
          <leafValues>
            -9.9794870615005493e-01 9.4378376007080078e-01</leafValues></_></weakClassifiers></_>
    <!-- stage 1 -->
    <_>
      <maxWeakCount>2</maxWeakCount>
      <stageThreshold>-1.0003545880317688e-01</stageThreshold>
      <weakClassifiers>
        <_>
          <internalNodes>
            0 -1 8 -204480376 -254345216 1344282624 -238346102
            -1568411488 -2147450880 -209477496 -607420214</internalNodes>
          <leafValues>
            -9.8123043775558472e-01 8.9373010396957397e-01</leafValues></_>
        <_>
          <internalNodes>
            0 -1 7 -738204673 -1755897801 269553301 -1810399209
            -2137281861 -1073709056 -2105440248 -72122365</internalNodes>
          <leafValues>
            -9.6461451053619385e-01 8.8119500875473022e-01</leafValues></_></weakClassifiers></_>
    <!-- stage 2 -->
    <_>
      <maxWeakCount>2</maxWeakCount>
      <stageThreshold>-1.0073010623455048e-01</stageThreshold>
      <weakClassifiers>
        <_>
          <internalNodes>
            0 -1 6 1198994163 -664846316 -1878994211 403195993
            -930438417 -2138570752 -1987540753 -1459830583</internalNodes>
          <leafValues>
            -9.1574722528457642e-01 9.0033221244812012e-01</leafValues></_>
        <_>
          <internalNodes>
            0 -1 4 1611878871 -982515235 1136909311 -670789604 2687739
            -1467842384 -1995974246 -662142772</internalNodes>
          <leafValues>
            -9.6406197547912598e-01 8.1501716375350952e-01</leafValues></_></weakClassifiers></_>
    <!-- stage 3 -->
    <_>
      <maxWeakCount>3</maxWeakCount>
      <stageThreshold>-9.0749818086624146e-01</stageThreshold>
      <weakClassifiers>
        <_>
          <internalNodes>
            0 -1 10 1393763079 1091567631 4145 -2147221502 -2146893789
            -2147450872 -788479929 -217939317</internalNodes>
          <leafValues>
            -9.3926703929901123e-01 8.4338623285293579e-01</leafValues></_>
        <_>
          <internalNodes>
            0 -1 3 -749273065 1074012187 1114379 1310850 196619
            -2147483648 -2122284917 -528441213</internalNodes>
          <leafValues>
            -8.6299568414688110e-01 9.0406060218811035e-01</leafValues></_>
        <_>
          <internalNodes>
            0 -1 1 1516535 1611727129 16847315 -619638525 303266
            -1879048190 -1878996963 -75370215</internalNodes>
          <leafValues>
            -8.7729412317276001e-01 8.9476448297500610e-01</leafValues></_></weakClassifiers></_>
    <!-- stage 4 -->
    <_>
      <maxWeakCount>2</maxWeakCount>
      <stageThreshold>3.0992530286312103e-02</stageThreshold>
      <weakClassifiers>
        <_>
          <internalNodes>
            0 -1 2 -1073528576 1048580 256 0 8192 0 0 -1040056320</internalNodes>
          <leafValues>
            -9.3313670158386230e-01 9.6149492263793945e-01</leafValues></_>
        <_>
          <internalNodes>
            0 -1 9 4259843 -2079326208 129 0 -2147450870 -1996480512
            -2146791256 -2147450880</internalNodes>
          <leafValues>
            -9.3050235509872437e-01 9.6919184923171997e-01</leafValues></_></weakClassifiers></_>
    <!-- stage 5 -->
    <_>
      <maxWeakCount>1</maxWeakCount>
      <stageThreshold>1.</stageThreshold>
      <weakClassifiers>
        <_>
          <internalNodes>
            0 -1 0 1 0 0 0 0 0 0 8388608</internalNodes>
          <leafValues>
            -1. 1.</leafValues></_></weakClassifiers></_></stages>
  <features>
    <_>
      <rect>
        0 0 2 6</rect></_>
    <_>
      <rect>
        0 0 5 3</rect></_>
    <_>
      <rect>
        0 4 3 4</rect></_>
    <_>
      <rect>
        0 11 2 4</rect></_>
    <_>
      <rect>
        4 14 5 3</rect></_>
    <_>
      <rect>
        6 10 5 4</rect></_>
    <_>
      <rect>
        8 1 5 4</rect></_>
    <_>
      <rect>
        8 8 2 3</rect></_>
    <_>
      <rect>
        8 9 1 2</rect></_>
    <_>
      <rect>
        9 0 4 6</rect></_>
    <_>
      <rect>
        18 1 2 4</rect></_></features></cascade>
</opencv_storage>
