<?xml version="1.0"?>
<opencv_storage>
<cascade>
  <stageType>BOOST</stageType>
  <featureType>LBP</featureType>
  <height>24</height>
  <width>24</width>
  <stageParams>
    <boostType>GAB</boostType>
    <minHitRate>9.9500000476837158e-01</minHitRate>
    <maxFalseAlarm>5.0000000000000000e-01</maxFalseAlarm>
    <weightTrimRate>9.4999999999999996e-01</weightTrimRate>
    <maxDepth>1</maxDepth>
    <maxWeakCount>100</maxWeakCount></stageParams>
  <featureParams>
    <maxCatCount>256</maxCatCount>
    <featSize>1</featSize></featureParams>
  <stageNum>5</stageNum>
  <stages>
    <!-- stage 0 -->
    <_>
      <maxWeakCount>1</maxWeakCount>
      <stageThreshold>9.5016252994537354e-01</stageThreshold>
      <weakClassifiers>
        <_>
          <internalNodes>
            0 -1 5 -803749886 -763363328 136 -1853816639 -2097119096
            -2147450752 -1476357990 -1148483445</internalNodes>
          <leafValues>
            -1. 9.5016252994537354e-01</leafValues></_></weakClassifiers></_>
    <!-- stage 1 -->
    <_>
      <maxWeakCount>2</maxWeakCount>
      <stageThreshold>-6.9671027362346649e-02</stageThreshold>
      <weakClassifiers>
        <_>
          <internalNodes>
            0 -1 4 1394290943 -141356577 1079145695 -574619637
            -1324867141 -1877999578 -930510565 -79001989</internalNodes>
          <leafValues>
            -9.4268167018890381e-01 8.8949078321456909e-01</leafValues></_>
        <_>
          <internalNodes>
            0 -1 0 -748736193 -1038875881 17901853 -2147479525
            -1609883221 -2139062272 -1719564118 -360403314</internalNodes>
          <leafValues>
            -9.5512354373931885e-01 8.7301063537597656e-01</leafValues></_></weakClassifiers></_>
    <!-- stage 2 -->
    <_>
      <maxWeakCount>2</maxWeakCount>
      <stageThreshold>-1.6755071701481938e-03</stageThreshold>
      <weakClassifiers>
        <_>
          <internalNodes>
            0 -1 6 1359053001 -268173310 -1879044018 -141885217 16887947
            32896 -209538933 -1147420485</internalNodes>
          <leafValues>
            -9.3025642633438110e-01 8.7243241071701050e-01</leafValues></_>
        <_>
          <internalNodes>
            0 -1 2 1398248095 1090551811 269619283 -1073709054 205707
            -1073709056 -494763897 -343367542</internalNodes>
          <leafValues>
            -8.7410795688629150e-01 9.3188750743865967e-01</leafValues></_></weakClassifiers></_>
    <!-- stage 3 -->
    <_>
      <maxWeakCount>2</maxWeakCount>
      <stageThreshold>-1.1873166076838970e-02</stageThreshold>
      <weakClassifiers>
        <_>
          <internalNodes>
            0 -1 1 -805220351 -787480575 65815 134610945 8421408
            -2147483648 17 -930971646</internalNodes>
          <leafValues>
            -9.0029323101043701e-01 9.3614596128463745e-01</leafValues></_>
        <_>
          <internalNodes>
            0 -1 3 538182163 1133510929 17826129 1375735832 229408
            134217732 34816 -1702723552</internalNodes>
          <leafValues>
            -9.4801914691925049e-01 8.9155411720275879e-01</leafValues></_></weakClassifiers></_>
    <!-- stage 4 -->
    <_>
      <maxWeakCount>1</maxWeakCount>
      <stageThreshold>1.</stageThreshold>
      <weakClassifiers>
        <_>
          <internalNodes>
            0 -1 7 2 -2147483648 16777216 0 32800 131072 16 -2147483648</internalNodes>
          <leafValues>
            -1. 1.</leafValues></_></weakClassifiers></_></stages>
  <features>
    <_>
      <rect>
        0 8 3 5</rect></_>
    <_>
      <rect>
        0 8 4 3</rect></_>
    <_>
      <rect>
        0 12 2 4</rect></_>
    <_>
      <rect>
        1 0 4 4</rect></_>
    <_>
      <rect>
        6 11 3 2</rect></_>
    <_>
      <rect>
        10 11 1 1</rect></_>
    <_>
      <rect>
        10 12 1 1</rect></_>
    <_>
      <rect>
        11 9 3 5</rect></_></features></cascade>
</opencv_storage>
