<?xml version="1.0"?>
<opencv_storage>
<cascade>
  <stageType>BOOST</stageType>
  <featureType>LBP</featureType>
  <height>24</height>
  <width>24</width>
  <stageParams>
    <boostType>GAB</boostType>
    <minHitRate>9.9500000476837158e-01</minHitRate>
    <maxFalseAlarm>5.0000000000000000e-01</maxFalseAlarm>
    <weightTrimRate>9.4999999999999996e-01</weightTrimRate>
    <maxDepth>1</maxDepth>
    <maxWeakCount>100</maxWeakCount></stageParams>
  <featureParams>
    <maxCatCount>256</maxCatCount>
    <featSize>1</featSize></featureParams>
  <stageNum>6</stageNum>
  <stages>
    <!-- stage 0 -->
    <_>
      <maxWeakCount>1</maxWeakCount>
      <stageThreshold>9.3534481525421143e-01</stageThreshold>
      <weakClassifiers>
        <_>
          <internalNodes>
            0 -1 7 -1052278564 -783089657 272629824 -775225205
            -2147463040 -2147483648 -1341489014 -74800245</internalNodes>
          <leafValues>
            -9.9588477611541748e-01 9.3534481525421143e-01</leafValues></_></weakClassifiers></_>
    <!-- stage 1 -->
    <_>
      <maxWeakCount>2</maxWeakCount>
      <stageThreshold>-5.1915835589170456e-02</stageThreshold>
      <weakClassifiers>
        <_>
          <internalNodes>
            0 -1 6 -788475767 -750780416 268439552 -788463616
            -1577025400 -1476362112 -1149193816 -1149007206</internalNodes>
          <leafValues>
            -8.8664746284484863e-01 9.5809078216552734e-01</leafValues></_>
        <_>
          <internalNodes>
            0 -1 9 1398223667 1129644103 65567 -666697721 -1610381209
            -1073479678 16842786 -78659537</internalNodes>
          <leafValues>
            -9.6688979864120483e-01 8.3473163843154907e-01</leafValues></_></weakClassifiers></_>
    <!-- stage 2 -->
    <_>
      <maxWeakCount>2</maxWeakCount>
      <stageThreshold>-7.4945688247680664e-02</stageThreshold>
      <weakClassifiers>
        <_>
          <internalNodes>
            0 -1 1 -211865217 1107329025 65883 4206731 -1853292501
            -2138931192 -2013036405 -387126641</internalNodes>
          <leafValues>
            -9.2276424169540405e-01 8.8209605216979980e-01</leafValues></_>
        <_>
          <internalNodes>
            0 -1 3 -771902563 -134798533 425264901 -1120689633 10070411
            -1276436317 185142411 -1111775170</internalNodes>
          <leafValues>
            -9.5704174041748047e-01 8.5325217247009277e-01</leafValues></_></weakClassifiers></_>
    <!-- stage 3 -->
    <_>
      <maxWeakCount>2</maxWeakCount>
      <stageThreshold>-1.1338663101196289e-01</stageThreshold>
      <weakClassifiers>
        <_>
          <internalNodes>
            0 -1 8 268636791 303104523 84083039 1359020049 134225975
            -2012708864 160508031 -1149206502</internalNodes>
          <leafValues>
            -9.5961743593215942e-01 8.3733057975769043e-01</leafValues></_>
        <_>
          <internalNodes>
            0 -1 2 -762056425 -435142625 4371 -528482302 536912161
            -1870659424 -2147442678 -644831206</internalNodes>
          <leafValues>
            -9.3605476617813110e-01 8.4623080492019653e-01</leafValues></_></weakClassifiers></_>
    <!-- stage 4 -->
    <_>
      <maxWeakCount>2</maxWeakCount>
      <stageThreshold>-2.4520281702280045e-02</stageThreshold>
      <weakClassifiers>
        <_>
          <internalNodes>
            0 -1 4 -2063498989 1073815553 131213 138412034 -1878785920 0
            -2147483646 -788488056</internalNodes>
          <leafValues>
            -9.5059287548065186e-01 9.7072070837020874e-01</leafValues></_>
        <_>
          <internalNodes>
            0 -1 5 1073807372 1342308388 65672 1048580 32768 -2147483646
            -2147450728 -1316911096</internalNodes>
          <leafValues>
            -9.8312819004058838e-01 9.2607259750366211e-01</leafValues></_></weakClassifiers></_>
    <!-- stage 5 -->
    <_>
      <maxWeakCount>1</maxWeakCount>
      <stageThreshold>1.</stageThreshold>
      <weakClassifiers>
        <_>
          <internalNodes>
            0 -1 0 512 262144 0 0 1 0 0 2</internalNodes>
          <leafValues>
            -1. 1.</leafValues></_></weakClassifiers></_></stages>
  <features>
    <_>
      <rect>
        0 0 2 8</rect></_>
    <_>
      <rect>
        0 10 2 4</rect></_>
    <_>
      <rect>
        0 12 3 4</rect></_>
    <_>
      <rect>
        7 4 4 6</rect></_>
    <_>
      <rect>
        7 6 3 4</rect></_>
    <_>
      <rect>
        7 8 2 2</rect></_>
    <_>
      <rect>
        8 11 1 1</rect></_>
    <_>
      <rect>
        9 12 1 2</rect></_>
    <_>
      <rect>
        11 0 4 4</rect></_>
    <_>
      <rect>
        15 1 3 5</rect></_></features></cascade>
</opencv_storage>
