<?xml version="1.0"?>
<opencv_storage>
<cascade>
  <stageType>BOOST</stageType>
  <featureType>LBP</featureType>
  <height>24</height>
  <width>24</width>
  <stageParams>
    <boostType>GAB</boostType>
    <minHitRate>9.9500000476837158e-01</minHitRate>
    <maxFalseAlarm>5.0000000000000000e-01</maxFalseAlarm>
    <weightTrimRate>9.4999999999999996e-01</weightTrimRate>
    <maxDepth>1</maxDepth>
    <maxWeakCount>100</maxWeakCount></stageParams>
  <featureParams>
    <maxCatCount>256</maxCatCount>
    <featSize>1</featSize></featureParams>
  <stageNum>7</stageNum>
  <stages>
    <!-- stage 0 -->
    <_>
      <maxWeakCount>2</maxWeakCount>
      <stageThreshold>-6.7554086446762085e-02</stageThreshold>
      <weakClassifiers>
        <_>
          <internalNodes>
            0 -1 4 -782789698 -1856962541 35996860 -246349557
            -1870487366 -1063124990 -1953922629 -1149005685</internalNodes>
          <leafValues>
            -9.8159509897232056e-01 9.3275487422943115e-01</leafValues></_>
        <_>
          <internalNodes>
            0 -1 7 -749210633 -780730095 -1862063841 -615263845
            -393499717 -1449000798 -520050667 -649819964</internalNodes>
          <leafValues>
            -9.6545904874801636e-01 9.1404098272323608e-01</leafValues></_></weakClassifiers></_>
    <!-- stage 1 -->
    <_>
      <maxWeakCount>2</maxWeakCount>
      <stageThreshold>-1.1953182518482208e-02</stageThreshold>
      <weakClassifiers>
        <_>
          <internalNodes>
            0 -1 12 1400841023 1347747863 1343225911 1426063366
            1074466843 -1728053248 -1056964309 -108797265</internalNodes>
          <leafValues>
            -9.1750502586364746e-01 8.9624726772308350e-01</leafValues></_>
        <_>
          <internalNodes>
            0 -1 1 -682101993 22090003 1134879 8454163 -2129944177
            -2004844416 -1987870582 -2004112766</internalNodes>
          <leafValues>
            -8.7419432401657104e-01 9.0555185079574585e-01</leafValues></_></weakClassifiers></_>
    <!-- stage 2 -->
    <_>
      <maxWeakCount>2</maxWeakCount>
      <stageThreshold>-6.9428741931915283e-02</stageThreshold>
      <weakClassifiers>
        <_>
          <internalNodes>
            0 -1 6 -202390806 -1018298232 -16785376 -3 -8498 -1
            -208945169 -74733429</internalNodes>
          <leafValues>
            -9.0099012851715088e-01 9.1011238098144531e-01</leafValues></_>
        <_>
          <internalNodes>
            0 -1 10 1532965751 -682229741 33571101 -712683382 1901680959
            -2147418104 1611229242 -69353334</internalNodes>
          <leafValues>
            -9.4069194793701172e-01 8.3156132698059082e-01</leafValues></_></weakClassifiers></_>
    <!-- stage 3 -->
    <_>
      <maxWeakCount>2</maxWeakCount>
      <stageThreshold>-2.0902137458324432e-01</stageThreshold>
      <weakClassifiers>
        <_>
          <internalNodes>
            0 -1 2 290918751 1574371359 55610206 -628162165 9118127
            -796850151 -922251346 -105331777</internalNodes>
          <leafValues>
            -9.6312361955642700e-01 8.0572599172592163e-01</leafValues></_>
        <_>
          <internalNodes>
            0 -1 11 -1747749889 -1790509053 16859455 -1727971325
            25280693 -2147483647 1229004885 -654212520</internalNodes>
          <leafValues>
            -9.2588937282562256e-01 7.5410228967666626e-01</leafValues></_></weakClassifiers></_>
    <!-- stage 4 -->
    <_>
      <maxWeakCount>2</maxWeakCount>
      <stageThreshold>-1.0103993117809296e-01</stageThreshold>
      <weakClassifiers>
        <_>
          <internalNodes>
            0 -1 5 -708856973 -680312830 18022429 1595474013 -527914741
            -1299087232 -813134934 1264184027</internalNodes>
          <leafValues>
            -9.4491523504257202e-01 8.2845187187194824e-01</leafValues></_>
        <_>
          <internalNodes>
            0 -1 8 239801207 1931431948 4189 1494482953 36759671
            -1610086388 -2013206305 -74915839</internalNodes>
          <leafValues>
            -9.1293805837631226e-01 8.4387534856796265e-01</leafValues></_></weakClassifiers></_>
    <!-- stage 5 -->
    <_>
      <maxWeakCount>2</maxWeakCount>
      <stageThreshold>4.3312132358551025e-02</stageThreshold>
      <weakClassifiers>
        <_>
          <internalNodes>
            0 -1 9 70231 -2080374783 18 -2147483647 163842 65536
            -2147483445 -2147483583</internalNodes>
          <leafValues>
            -8.9302772283554077e-01 9.7889798879623413e-01</leafValues></_>
        <_>
          <internalNodes>
            0 -1 3 196929 -2147483504 50529046 -1608515453 -2147483512 8
            -2147352503 -1995931640</internalNodes>
          <leafValues>
            -9.1677308082580566e-01 9.3633985519409180e-01</leafValues></_></weakClassifiers></_>
    <!-- stage 6 -->
    <_>
      <maxWeakCount>1</maxWeakCount>
      <stageThreshold>1.</stageThreshold>
      <weakClassifiers>
        <_>
          <internalNodes>
            0 -1 0 128 65536 16 0 144 0 0 0</internalNodes>
          <leafValues>
            -1. 1.</leafValues></_></weakClassifiers></_></stages>
  <features>
    <_>
      <rect>
        0 2 4 2</rect></_>
    <_>
      <rect>
        0 8 2 3</rect></_>
    <_>
      <rect>
        2 10 4 4</rect></_>
    <_>
      <rect>
        2 12 4 4</rect></_>
    <_>
      <rect>
        4 9 3 3</rect></_>
    <_>
      <rect>
        6 8 4 3</rect></_>
    <_>
      <rect>
        7 9 1 2</rect></_>
    <_>
      <rect>
        7 9 5 5</rect></_>
    <_>
      <rect>
        8 0 5 4</rect></_>
    <_>
      <rect>
        8 12 4 4</rect></_>
    <_>
      <rect>
        12 0 4 5</rect></_>
    <_>
      <rect>
        12 11 4 4</rect></_>
    <_>
      <rect>
        15 0 3 4</rect></_></features></cascade>
</opencv_storage>
