<?xml version="1.0"?>
<opencv_storage>
<cascade>
  <stageType>BOOST</stageType>
  <featureType>LBP</featureType>
  <height>24</height>
  <width>24</width>
  <stageParams>
    <boostType>GAB</boostType>
    <minHitRate>9.9500000476837158e-01</minHitRate>
    <maxFalseAlarm>5.0000000000000000e-01</maxFalseAlarm>
    <weightTrimRate>9.4999999999999996e-01</weightTrimRate>
    <maxDepth>1</maxDepth>
    <maxWeakCount>100</maxWeakCount></stageParams>
  <featureParams>
    <maxCatCount>256</maxCatCount>
    <featSize>1</featSize></featureParams>
  <stageNum>5</stageNum>
  <stages>
    <!-- stage 0 -->
    <_>
      <maxWeakCount>1</maxWeakCount>
      <stageThreshold>9.4805192947387695e-01</stageThreshold>
      <weakClassifiers>
        <_>
          <internalNodes>
            0 -1 4 -803745790 -763363328 128 -1853816639 -2097114744
            -2147450752 -1476358006 -1148483445</internalNodes>
          <leafValues>
            -1. 9.4805192947387695e-01</leafValues></_></weakClassifiers></_>
    <!-- stage 1 -->
    <_>
      <maxWeakCount>2</maxWeakCount>
      <stageThreshold>-7.7672168612480164e-02</stageThreshold>
      <weakClassifiers>
        <_>
          <internalNodes>
            0 -1 7 1171764159 -1538981885 134316315 -1672364025
            -2147237463 -2147483648 -2097086463 -94531324</internalNodes>
          <leafValues>
            -9.5046436786651611e-01 8.8184750080108643e-01</leafValues></_>
        <_>
          <internalNodes>
            0 -1 2 1360264123 -682408555 1359051857 1561411723
            -1065307734 268435509 -2088402691 -786876193</internalNodes>
          <leafValues>
            -9.3815451860427856e-01 8.7279224395751953e-01</leafValues></_></weakClassifiers></_>
    <!-- stage 2 -->
    <_>
      <maxWeakCount>2</maxWeakCount>
      <stageThreshold>-1.3137568533420563e-01</stageThreshold>
      <weakClassifiers>
        <_>
          <internalNodes>
            0 -1 0 1398210719 1364295951 16781589 -531625973 -2122088423
            -1736237053 -1736269686 -109008750</internalNodes>
          <leafValues>
            -9.6070319414138794e-01 8.8853162527084351e-01</leafValues></_>
        <_>
          <internalNodes>
            0 -1 3 -245640193 -741277673 1373073759 1594335758
            -1584811213 -1065352576 -1979012470 2055973578</internalNodes>
          <leafValues>
            -9.9817699193954468e-01 8.2932752370834351e-01</leafValues></_></weakClassifiers></_>
    <!-- stage 3 -->
    <_>
      <maxWeakCount>2</maxWeakCount>
      <stageThreshold>-1.9163241609930992e-02</stageThreshold>
      <weakClassifiers>
        <_>
          <internalNodes>
            0 -1 6 285541239 -1056897023 4 -939458039 1359167534 0
            1074790410 -1476165493</internalNodes>
          <leafValues>
            -9.6102565526962280e-01 9.0486484766006470e-01</leafValues></_>
        <_>
          <internalNodes>
            0 -1 5 1342255875 4292608 1 589827 589835 -2147483648
            -2147254133 -532578302</internalNodes>
          <leafValues>
            -9.0595024824142456e-01 9.4186240434646606e-01</leafValues></_></weakClassifiers></_>
    <!-- stage 4 -->
    <_>
      <maxWeakCount>1</maxWeakCount>
      <stageThreshold>1.</stageThreshold>
      <weakClassifiers>
        <_>
          <internalNodes>
            0 -1 1 1073741827 0 1 262144 0 16777216 32832 -2147483520</internalNodes>
          <leafValues>
            -9.9800199270248413e-01 1.</leafValues></_></weakClassifiers></_></stages>
  <features>
    <_>
      <rect>
        1 11 3 4</rect></_>
    <_>
      <rect>
        5 10 6 2</rect></_>
    <_>
      <rect>
        8 8 3 3</rect></_>
    <_>
      <rect>
        10 10 2 2</rect></_>
    <_>
      <rect>
        10 11 1 1</rect></_>
    <_>
      <rect>
        14 0 1 8</rect></_>
    <_>
      <rect>
        15 0 3 5</rect></_>
    <_>
      <rect>
        15 9 3 5</rect></_></features></cascade>
</opencv_storage>
