<?xml version="1.0"?>
<opencv_storage>
<cascade>
  <stageType>BOOST</stageType>
  <featureType>LBP</featureType>
  <height>24</height>
  <width>24</width>
  <stageParams>
    <boostType>GAB</boostType>
    <minHitRate>9.9500000476837158e-01</minHitRate>
    <maxFalseAlarm>5.0000000000000000e-01</maxFalseAlarm>
    <weightTrimRate>9.4999999999999996e-01</weightTrimRate>
    <maxDepth>1</maxDepth>
    <maxWeakCount>100</maxWeakCount></stageParams>
  <featureParams>
    <maxCatCount>256</maxCatCount>
    <featSize>1</featSize></featureParams>
  <stageNum>7</stageNum>
  <stages>
    <!-- stage 0 -->
    <_>
      <maxWeakCount>2</maxWeakCount>
      <stageThreshold>-4.5361079275608063e-02</stageThreshold>
      <weakClassifiers>
        <_>
          <internalNodes>
            0 -1 8 -782765313 -787464173 285298873 -787414827
            -2139062081 -2122285040 -1584824133 -208691045</internalNodes>
          <leafValues>
            -9.8781728744506836e-01 9.5409834384918213e-01</leafValues></_>
        <_>
          <internalNodes>
            0 -1 9 -672664673 -210487969 1124144511 -741138221
            -1572101981 -2104492032 -1962433861 -380317167</internalNodes>
          <leafValues>
            -9.5937311649322510e-01 9.4245618581771851e-01</leafValues></_></weakClassifiers></_>
    <!-- stage 1 -->
    <_>
      <maxWeakCount>2</maxWeakCount>
      <stageThreshold>-1.0273262113332748e-01</stageThreshold>
      <weakClassifiers>
        <_>
          <internalNodes>
            0 -1 5 -202115073 -741272489 1361304927 -754839521
            -1596870149 -2135949179 -2088204130 -738538321</internalNodes>
          <leafValues>
            -9.2547833919525146e-01 9.0297687053680420e-01</leafValues></_>
        <_>
          <internalNodes>
            0 -1 3 324490591 -783072943 286348767 -134217538 38469780
            -1870495608 -863796325 -123166536</internalNodes>
          <leafValues>
            -9.7480982542037964e-01 8.2274574041366577e-01</leafValues></_></weakClassifiers></_>
    <!-- stage 2 -->
    <_>
      <maxWeakCount>2</maxWeakCount>
      <stageThreshold>-8.3223119378089905e-02</stageThreshold>
      <weakClassifiers>
        <_>
          <internalNodes>
            0 -1 0 -1679879681 -233697250 -1606615073 -27651172
            -2026142401 -608501605 -1462006083 -284481</internalNodes>
          <leafValues>
            -9.6149730682373047e-01 8.2797926664352417e-01</leafValues></_>
        <_>
          <internalNodes>
            0 -1 2 -791449097 -749268897 17027551 -2080374774 -74272327
            -1568473087 -510596197 -595549672</internalNodes>
          <leafValues>
            -9.1120237112045288e-01 8.9196616411209106e-01</leafValues></_></weakClassifiers></_>
    <!-- stage 3 -->
    <_>
      <maxWeakCount>2</maxWeakCount>
      <stageThreshold>-1.3077287375926971e-01</stageThreshold>
      <weakClassifiers>
        <_>
          <internalNodes>
            0 -1 6 -740822018 1936027775 596636 -1018957185 -1862229058
            -1047525344 -1954510148 -339236193</internalNodes>
          <leafValues>
            -9.4849783182144165e-01 8.0991733074188232e-01</leafValues></_>
        <_>
          <internalNodes>
            0 -1 12 1208217983 -657456940 285280607 -653197291 8954579
            -1065353168 -1996386540 -350191148</internalNodes>
          <leafValues>
            -9.0939140319824219e-01 8.1772500276565552e-01</leafValues></_></weakClassifiers></_>
    <!-- stage 4 -->
    <_>
      <maxWeakCount>2</maxWeakCount>
      <stageThreshold>-6.1083927750587463e-02</stageThreshold>
      <weakClassifiers>
        <_>
          <internalNodes>
            0 -1 4 8532603 -250541801 286389757 -46038014 -1735882514
            -318734336 -1966219235 -2248690</internalNodes>
          <leafValues>
            -8.9173227548599243e-01 9.1176468133926392e-01</leafValues></_>
        <_>
          <internalNodes>
            0 -1 11 -797290017 -523014003 51609887 -770983936 -791960673
            -253689088 -1995462471 -271925110</internalNodes>
          <leafValues>
            -9.6995174884796143e-01 8.3064836263656616e-01</leafValues></_></weakClassifiers></_>
    <!-- stage 5 -->
    <_>
      <maxWeakCount>2</maxWeakCount>
      <stageThreshold>3.5473302006721497e-02</stageThreshold>
      <weakClassifiers>
        <_>
          <internalNodes>
            0 -1 10 131073 1048915 65536 -2147483648 524336 -2147483648
            1 -1728053247</internalNodes>
          <leafValues>
            -8.6393290758132935e-01 1.</leafValues></_>
        <_>
          <internalNodes>
            0 -1 7 -981360607 805341184 65536 -1844838398 41600
            -2145386496 -2147481600 -1031766016</internalNodes>
          <leafValues>
            -9.2337197065353394e-01 8.9940619468688965e-01</leafValues></_></weakClassifiers></_>
    <!-- stage 6 -->
    <_>
      <maxWeakCount>1</maxWeakCount>
      <stageThreshold>1.</stageThreshold>
      <weakClassifiers>
        <_>
          <internalNodes>
            0 -1 1 1 65537 33554432 0 0 0 0 32768</internalNodes>
          <leafValues>
            -1. 1.</leafValues></_></weakClassifiers></_></stages>
  <features>
    <_>
      <rect>
        0 7 6 4</rect></_>
    <_>
      <rect>
        1 6 7 4</rect></_>
    <_>
      <rect>
        1 15 4 3</rect></_>
    <_>
      <rect>
        2 12 5 4</rect></_>
    <_>
      <rect>
        4 0 5 4</rect></_>
    <_>
      <rect>
        5 5 4 3</rect></_>
    <_>
      <rect>
        5 9 2 3</rect></_>
    <_>
      <rect>
        6 0 3 7</rect></_>
    <_>
      <rect>
        6 5 4 3</rect></_>
    <_>
      <rect>
        6 9 4 5</rect></_>
    <_>
      <rect>
        7 15 3 3</rect></_>
    <_>
      <rect>
        8 2 3 5</rect></_>
    <_>
      <rect>
        9 15 5 3</rect></_></features></cascade>
</opencv_storage>
