<?xml version="1.0"?>
<opencv_storage>
<cascade>
  <stageType>BOOST</stageType>
  <featureType>LBP</featureType>
  <height>24</height>
  <width>24</width>
  <stageParams>
    <boostType>GAB</boostType>
    <minHitRate>9.9500000476837158e-01</minHitRate>
    <maxFalseAlarm>5.0000000000000000e-01</maxFalseAlarm>
    <weightTrimRate>9.4999999999999996e-01</weightTrimRate>
    <maxDepth>1</maxDepth>
    <maxWeakCount>100</maxWeakCount></stageParams>
  <featureParams>
    <maxCatCount>256</maxCatCount>
    <featSize>1</featSize></featureParams>
  <stageNum>5</stageNum>
  <stages>
    <!-- stage 0 -->
    <_>
      <maxWeakCount>1</maxWeakCount>
      <stageThreshold>9.8456448316574097e-01</stageThreshold>
      <weakClassifiers>
        <_>
          <internalNodes>
            0 -1 6 -1073430399 -209715200 208 -779517888 -2147450752
            -2147450880 -2013101942 -1165262693</internalNodes>
          <leafValues>
            -1. 9.8456448316574097e-01</leafValues></_></weakClassifiers></_>
    <!-- stage 1 -->
    <_>
      <maxWeakCount>2</maxWeakCount>
      <stageThreshold>-9.5175042748451233e-02</stageThreshold>
      <weakClassifiers>
        <_>
          <internalNodes>
            0 -1 3 -774700769 -698723754 268505371 -241520326
            -2147352272 -1146388301 -2143649633 -73742193</internalNodes>
          <leafValues>
            -9.8951780796051025e-01 8.9217758178710938e-01</leafValues></_>
        <_>
          <internalNodes>
            0 -1 5 -790855539 -757596152 285278288 -573505536
            -2104819574 -1853882240 -1417443158 -1148516216</internalNodes>
          <leafValues>
            -9.5783221721649170e-01 8.9434278011322021e-01</leafValues></_></weakClassifiers></_>
    <!-- stage 2 -->
    <_>
      <maxWeakCount>2</maxWeakCount>
      <stageThreshold>-5.8856446295976639e-02</stageThreshold>
      <weakClassifiers>
        <_>
          <internalNodes>
            0 -1 4 -1019014729 121635095 -1878847203 -1073704949
            -1073503989 -1442709503 -1862164329 -360676728</internalNodes>
          <leafValues>
            -9.7460317611694336e-01 8.5968583822250366e-01</leafValues></_>
        <_>
          <internalNodes>
            0 -1 1 -954748393 16875777 16855447 65552 268665795
            -2147483648 -2088664933 -930643838</internalNodes>
          <leafValues>
            -9.1615474224090576e-01 9.1574674844741821e-01</leafValues></_></weakClassifiers></_>
    <!-- stage 3 -->
    <_>
      <maxWeakCount>1</maxWeakCount>
      <stageThreshold>9.3965518474578857e-01</stageThreshold>
      <weakClassifiers>
        <_>
          <internalNodes>
            0 -1 2 33237 -2137980863 1342377989 -2012147696 36864
            -1610612736 -2147450360 -1601929168</internalNodes>
          <leafValues>
            -1. 9.3965518474578857e-01</leafValues></_></weakClassifiers></_>
    <!-- stage 4 -->
    <_>
      <maxWeakCount>1</maxWeakCount>
      <stageThreshold>1.</stageThreshold>
      <weakClassifiers>
        <_>
          <internalNodes>
            0 -1 0 0 0 0 0 0 0 -2147483648 -2147483648</internalNodes>
          <leafValues>
            -1. 1.</leafValues></_></weakClassifiers></_></stages>
  <features>
    <_>
      <rect>
        0 0 4 5</rect></_>
    <_>
      <rect>
        0 7 2 3</rect></_>
    <_>
      <rect>
        1 3 5 5</rect></_>
    <_>
      <rect>
        2 11 4 3</rect></_>
    <_>
      <rect>
        2 12 3 4</rect></_>
    <_>
      <rect>
        10 11 1 1</rect></_>
    <_>
      <rect>
        11 11 1 1</rect></_></features></cascade>
</opencv_storage>
