<?xml version="1.0"?>
<opencv_storage>
<cascade>
  <stageType>BOOST</stageType>
  <featureType>LBP</featureType>
  <height>24</height>
  <width>24</width>
  <stageParams>
    <boostType>GAB</boostType>
    <minHitRate>9.9500000476837158e-01</minHitRate>
    <maxFalseAlarm>5.0000000000000000e-01</maxFalseAlarm>
    <weightTrimRate>9.4999999999999996e-01</weightTrimRate>
    <maxDepth>1</maxDepth>
    <maxWeakCount>100</maxWeakCount></stageParams>
  <featureParams>
    <maxCatCount>256</maxCatCount>
    <featSize>1</featSize></featureParams>
  <stageNum>6</stageNum>
  <stages>
    <!-- stage 0 -->
    <_>
      <maxWeakCount>2</maxWeakCount>
      <stageThreshold>-5.7813894003629684e-02</stageThreshold>
      <weakClassifiers>
        <_>
          <internalNodes>
            0 -1 3 -753667169 -783187657 17914335 -783056853 -2096389704
            -2096988150 -939286340 -6831397</internalNodes>
          <leafValues>
            -9.8189133405685425e-01 9.6688741445541382e-01</leafValues></_>
        <_>
          <internalNodes>
            0 -1 5 -253276022 -263585534 640 -109051902 -1870036856
            -2147450752 -1342078582 -1165514613</internalNodes>
          <leafValues>
            -9.9039947986602783e-01 9.2407745122909546e-01</leafValues></_></weakClassifiers></_>
    <!-- stage 1 -->
    <_>
      <maxWeakCount>2</maxWeakCount>
      <stageThreshold>-7.5643882155418396e-02</stageThreshold>
      <weakClassifiers>
        <_>
          <internalNodes>
            0 -1 4 -11536385 -749268193 239806 -610573985 -1593330753
            -1866465261 -889148534 -70536501</internalNodes>
          <leafValues>
            -9.6494847536087036e-01 8.9892470836639404e-01</leafValues></_>
        <_>
          <internalNodes>
            0 -1 10 1968652087 1364525125 74035 -1073405439 -2146762741
            0 73731 -104078710</internalNodes>
          <leafValues>
            -9.4105756282806396e-01 8.8930457830429077e-01</leafValues></_></weakClassifiers></_>
    <!-- stage 2 -->
    <_>
      <maxWeakCount>2</maxWeakCount>
      <stageThreshold>-1.0026311501860619e-02</stageThreshold>
      <weakClassifiers>
        <_>
          <internalNodes>
            0 -1 2 -164638369 -750042985 -778964609 -1725886049
            -1966101580 -1298988865 -1333546498 -335809541</internalNodes>
          <leafValues>
            -9.0899896621704102e-01 8.7705814838409424e-01</leafValues></_>
        <_>
          <internalNodes>
            0 -1 8 1165983615 -682544941 1090519415 1342210295
            1629070203 -2139062272 1342208087 -347617257</internalNodes>
          <leafValues>
            -8.8708448410034180e-01 9.0698689222335815e-01</leafValues></_></weakClassifiers></_>
    <!-- stage 3 -->
    <_>
      <maxWeakCount>2</maxWeakCount>
      <stageThreshold>-7.1793325245380402e-02</stageThreshold>
      <weakClassifiers>
        <_>
          <internalNodes>
            0 -1 0 -774663721 -573505193 302322457 -1073176550
            -2145320519 -1173190653 -666859389 -611802472</internalNodes>
          <leafValues>
            -9.5020747184753418e-01 8.7179487943649292e-01</leafValues></_>
        <_>
          <internalNodes>
            0 -1 9 394212151 -787415037 135798847 -586862581 1075322939
            -2147315710 -292865477 -74452837</internalNodes>
          <leafValues>
            -9.3889838457107544e-01 8.7841415405273438e-01</leafValues></_></weakClassifiers></_>
    <!-- stage 4 -->
    <_>
      <maxWeakCount>2</maxWeakCount>
      <stageThreshold>-6.6904261708259583e-02</stageThreshold>
      <weakClassifiers>
        <_>
          <internalNodes>
            0 -1 6 -1874394981 16908295 16777408 50331776 753666
            268435488 -2113697124 -1442668534</internalNodes>
          <leafValues>
            -9.7478991746902466e-01 8.7341773509979248e-01</leafValues></_>
        <_>
          <internalNodes>
            0 -1 7 -1073168255 1073741824 268439617 -792723456
            -2147483520 -2147483648 1476395146 -1165328246</internalNodes>
          <leafValues>
            -9.4032198190689087e-01 9.0900045633316040e-01</leafValues></_></weakClassifiers></_>
    <!-- stage 5 -->
    <_>
      <maxWeakCount>1</maxWeakCount>
      <stageThreshold>1.</stageThreshold>
      <weakClassifiers>
        <_>
          <internalNodes>
            0 -1 1 1 0 65538 131072 1 0 0 -2113798144</internalNodes>
          <leafValues>
            -9.9800199270248413e-01 1.</leafValues></_></weakClassifiers></_></stages>
  <features>
    <_>
      <rect>
        0 12 4 4</rect></_>
    <_>
      <rect>
        2 10 7 4</rect></_>
    <_>
      <rect>
        5 9 5 3</rect></_>
    <_>
      <rect>
        6 9 4 4</rect></_>
    <_>
      <rect>
        8 9 2 4</rect></_>
    <_>
      <rect>
        9 8 1 2</rect></_>
    <_>
      <rect>
        9 9 2 4</rect></_>
    <_>
      <rect>
        9 11 1 1</rect></_>
    <_>
      <rect>
        12 4 4 4</rect></_>
    <_>
      <rect>
        15 0 3 4</rect></_>
    <_>
      <rect>
        18 0 2 5</rect></_></features></cascade>
</opencv_storage>
